svm_type c_svc
kernel_type rbf
gamma 0.000488281
nr_class 7
total_sv 213
rho 0.391993 0.106703 -0.153107 -0.0349818 -0.360108 0.163671 -0.109276 -0.529343 -0.353347 -0.479558 -0.16299 -0.229895 -0.151643 -0.198402 0.104594 0.389828 0.177898 0.429795 0.10409 0.483945 0.225014
label 1 2 3 4 5 6 7
probA -2.57435 -3.82054 -3.78714 -4.6096 -4.06389 -3.56404 -2.20908 -2.79292 -3.51679 -2.51357 -3.83791 -2.05429 -1.16074 -0.760502 -2.48772 -2.93835 -2.80178 -3.73221 -1.17168 -0.829003 -1.09641
probB 0.131152 -0.0674506 0.0177879 0.0938408 -0.0228321 0.143979 -0.0703934 -0.166842 -0.287526 0.0278601 -0.12676 -0.038763 -0.00445601 -0.0412713 0.0242029 -0.0332256 0.114589 0.160561 0.0759443 0.0537337 -0.00802203
nr_sv 30 29 32 31 30 31 30
SV
0.2075610082619627 0 0 0.731036363588373 0.8977701703256532 0.7035593482492533 1:32 2:7 3:8 4:5 5:3 6:1 7:6 8:15 9:7 10:1 11:1 12:2 13:14 14:1 15:13 16:14 17:11 18:1 19:0 20:0 21:3 22:0 23:4 24:0 25:12 26:3 27:7 28:0 29:18 30:3 31:19 32:13 33:8 34:3 35:1 36:0 37:0 38:1 39:0 40:0 41:4 42:0 43:1 44:1 45:1 46:0 47:0 48:2 49:11 50:0 51:1 52:0 53:0 54:0 55:1 56:1 57:24 58:0 59:3 60:3 61:52 62:1 63:16 64:11 65:5 66:1 67:1 68:0 69:1 70:1 71:1 72:3 73:2 74:1 75:0 76:0 77:1 78:0 79:1 80:5 81:1 82:1 83:0 84:0 85:0 86:0 87:0 88:0 89:1 90:1 91:0 92:0 93:3 94:0 95:4 96:3 97:9 98:1 99:0 100:0 101:0 102:0 103:0 104:1 105:0 106:0 107:1 108:1 109:0 110:1 111:1 112:2 113:23 114:4 115:1 116:1 117:3 118:0 119:0 120:3 121:50 122:2 123:1 124:1 125:26 126:3 127:8 128:8 129:6 130:6 131:0 132:19 133:0 134:2 135:0 136:26 137:1 138:0 139:1 140:0 141:0 142:0 143:0 144:7 145:2 146:0 147:0 148:2 149:0 150:1 151:1 152:2 153:2 154:0 155:0 156:1 157:0 158:2 159:3 160:10 161:1 162:1 163:0 164:1 165:0 166:0 167:0 168:2 169:0 170:0 171:0 172:0 173:0 174:2 175:0 176:2 177:0 178:1 179:0 180:1 181:0 182:0 183:1 184:2 185:1 186:1 187:2 188:2 189:2 190:2 191:3 192:10 193:3 194:15 195:3 196:36 197:0 198:2 199:1 200:16 201:2 202:1 203:0 204:4 205:0 206:0 207:0 208:7 209:2 210:0 211:0 212:2 213:0 214:0 215:0 216:2 217:0 218:0 219:1 220:0 221:1 222:0 223:3 224:10 225:12 226:20 227:1 228:10 229:0 230:2 231:0 232:5 233:1 234:1 235:1 236:0 237:1 238:2 239:4 240:14 241:20 242:11 243:1 244:5 245:4 246:3 247:2 248:4 249:10 250:7 251:1 252:6 253:3 254:5 255:12 256:56 
1.963453932267674 2.393010469146318 0.3578597376126134 0.9214466791326611 1.494546517656526 1.889569798364185 1:39 2:5 3:5 4:7 5:13 6:2 7:9 8:14 9:10 10:1 11:3 12:2 13:6 14:3 15:16 16:18 17:8 18:1 19:1 20:0 21:3 22:0 23:2 24:0 25:12 26:2 27:0 28:1 29:20 30:2 31:20 32:11 33:6 34:1 35:1 36:1 37:2 38:1 39:0 40:0 41:3 42:1 43:2 44:1 45:3 46:2 47:2 48:1 49:10 50:2 51:0 52:0 53:0 54:0 55:0 56:3 57:23 58:2 59:3 60:1 61:40 62:4 63:18 64:8 65:7 66:2 67:0 68:2 69:4 70:2 71:1 72:1 73:3 74:0 75:1 76:0 77:1 78:0 79:0 80:1 81:3 82:0 83:0 84:1 85:1 86:1 87:1 88:0 89:1 90:0 91:0 92:1 93:1 94:1 95:1 96:6 97:10 98:1 99:0 100:0 101:0 102:0 103:0 104:2 105:2 106:0 107:1 108:2 109:3 110:1 111:0 112:1 113:19 114:1 115:2 116:1 117:3 118:0 119:1 120:1 121:73 122:4 123:1 124:1 125:27 126:2 127:10 128:6 129:5 130:2 131:3 132:17 133:0 134:2 135:1 136:16 137:1 138:0 139:0 140:0 141:0 142:0 143:2 144:7 145:1 146:2 147:1 148:0 149:0 150:0 151:1 152:1 153:0 154:0 155:0 156:2 157:2 158:1 159:2 160:8 161:2 162:1 163:0 164:0 165:0 166:0 167:0 168:2 169:0 170:0 171:0 172:0 173:1 174:0 175:0 176:2 177:3 178:1 179:0 180:0 181:0 182:0 183:0 184:0 185:1 186:2 187:0 188:2 189:5 190:1 191:1 192:15 193:4 194:13 195:2 196:19 197:0 198:0 199:0 200:16 201:1 202:0 203:0 204:2 205:0 206:0 207:1 208:5 209:2 210:2 211:0 212:0 213:0 214:0 215:1 216:3 217:0 218:0 219:0 220:2 221:1 222:1 223:3 224:7 225:13 226:12 227:0 228:8 229:0 230:2 231:1 232:2 233:2 234:2 235:2 236:1 237:0 238:1 239:3 240:14 241:23 242:10 243:2 244:4 245:0 246:2 247:4 248:3 249:15 250:10 251:0 252:3 253:8 254:12 255:12 256:57 
2.960506459218485 0.9996210270258433 0.5939395789784054 1.062616672387876 0.8047218892885529 0.59797701970585 1:34 2:4 3:8 4:8 5:9 6:2 7:7 8:13 9:8 10:2 11:1 12:1 13:6 14:3 15:13 16:18 17:13 18:4 19:0 20:2 21:2 22:0 23:0 24:2 25:12 26:2 27:1 28:0 29:19 30:2 31:23 32:15 33:10 34:0 35:1 36:1 37:0 38:0 39:0 40:0 41:1 42:1 43:1 44:0 45:0 46:0 47:0 48:0 49:17 50:1 51:1 52:0 53:3 54:0 55:2 56:1 57:37 58:0 59:0 60:0 61:53 62:1 63:18 64:9 65:3 66:0 67:0 68:2 69:3 70:0 71:0 72:2 73:0 74:1 75:0 76:0 77:3 78:1 79:2 80:0 81:3 82:0 83:0 84:0 85:0 86:0 87:0 88:0 89:0 90:0 91:1 92:0 93:1 94:0 95:2 96:2 97:13 98:0 99:1 100:1 101:2 102:0 103:0 104:0 105:3 106:1 107:0 108:0 109:1 110:0 111:2 112:2 113:20 114:4 115:0 116:1 117:1 118:0 119:0 120:0 121:49 122:2 123:4 124:2 125:36 126:5 127:12 128:8 129:4 130:5 131:2 132:13 133:1 134:3 135:1 136:20 137:0 138:1 139:0 140:0 141:1 142:1 143:0 144:6 145:1 146:2 147:0 148:0 149:0 150:0 151:0 152:2 153:0 154:0 155:0 156:2 157:1 158:0 159:2 160:9 161:3 162:0 163:0 164:2 165:0 166:0 167:0 168:3 169:0 170:0 171:0 172:0 173:0 174:1 175:0 176:3 177:0 178:1 179:0 180:0 181:0 182:0 183:1 184:2 185:3 186:1 187:1 188:4 189:1 190:2 191:2 192:15 193:11 194:8 195:1 196:21 197:0 198:2 199:0 200:11 201:1 202:2 203:1 204:1 205:3 206:1 207:0 208:6 209:2 210:1 211:0 212:0 213:0 214:0 215:0 216:2 217:1 218:1 219:1 220:2 221:1 222:1 223:2 224:1 225:12 226:10 227:0 228:7 229:1 230:2 231:0 232:0 233:1 234:0 235:1 236:1 237:4 238:1 239:3 240:13 241:29 242:17 243:1 244:2 245:3 246:1 247:1 248:3 249:12 250:10 251:2 252:5 253:13 254:5 255:16 256:54 
2.018069652182987 1.868274822161841 1.76352419733644 1.455713156672662 2.254932599234433 1.104211384419356 1:33 2:4 3:9 4:5 5:9 6:0 7:8 8:12 9:5 10:0 11:2 12:0 13:11 14:2 15:16 16:15 17:7 18:0 19:0 20:2 21:4 22:1 23:2 24:0 25:14 26:0 27:0 28:0 29:30 30:3 31:38 32:16 33:5 34:2 35:1 36:1 37:0 38:0 39:1 40:1 41:2 42:1 43:1 44:0 45:2 46:0 47:3 48:1 49:13 50:1 51:1 52:1 53:1 54:1 55:2 56:0 57:29 58:2 59:4 60:0 61:39 62:1 63:12 64:18 65:7 66:2 67:1 68:3 69:3 70:1 71:2 72:2 73:2 74:0 75:0 76:0 77:1 78:0 79:1 80:1 81:3 82:0 83:0 84:0 85:0 86:0 87:0 88:0 89:2 90:0 91:0 92:0 93:0 94:0 95:2 96:2 97:8 98:1 99:0 100:0 101:1 102:0 103:1 104:1 105:2 106:1 107:1 108:1 109:0 110:1 111:1 112:0 113:17 114:1 115:1 116:0 117:2 118:1 119:1 120:3 121:34 122:2 123:2 124:0 125:21 126:6 127:7 128:6 129:3 130:10 131:1 132:17 133:0 134:2 135:3 136:24 137:2 138:2 139:1 140:1 141:1 142:0 143:1 144:7 145:1 146:2 147:1 148:2 149:0 150:0 151:0 152:1 153:1 154:0 155:0 156:3 157:0 158:0 159:1 160:5 161:0 162:1 163:0 164:1 165:0 166:0 167:0 168:1 169:0 170:1 171:0 172:0 173:0 174:0 175:0 176:0 177:0 178:3 179:0 180:1 181:0 182:0 183:0 184:0 185:1 186:1 187:0 188:2 189:3 190:2 191:1 192:10 193:7 194:16 195:3 196:29 197:1 198:1 199:0 200:16 201:0 202:0 203:0 204:3 205:0 206:0 207:0 208:6 209:0 210:1 211:1 212:1 213:0 214:1 215:0 216:3 217:1 218:1 219:0 220:2 221:1 222:0 223:1 224:6 225:8 226:23 227:2 228:12 229:0 230:1 231:1 232:7 233:0 234:3 235:0 236:2 237:4 238:3 239:5 240:17 241:25 242:10 243:1 244:5 245:3 246:1 247:3 248:8 249:10 250:8 251:2 252:10 253:2 254:7 255:17 256:51 
1.849384164131385 0.658590781682557 1.665311557979408 1.650512904830123 0.9728823698036912 0.4289790680292698 1:28 2:6 3:5 4:7 5:5 6:1 7:9 8:7 9:11 10:2 11:1 12:1 13:13 14:0 15:20 16:20 17:11 18:0 19:0 20:0 21:3 22:0 23:1 24:1 25:13 26:1 27:3 28:3 29:19 30:3 31:30 32:20 33:7 34:4 35:1 36:1 37:1 38:0 39:0 40:1 41:8 42:0 43:0 44:0 45:0 46:1 47:0 48:2 49:7 50:1 51:1 52:0 53:2 54:0 55:1 56:1 57:22 58:0 59:1 60:2 61:43 62:3 63:15 64:15 65:9 66:1 67:0 68:3 69:1 70:1 71:0 72:2 73:0 74:1 75:0 76:0 77:1 78:0 79:0 80:0 81:2 82:0 83:0 84:0 85:0 86:0 87:1 88:0 89:1 90:0 91:0 92:0 93:1 94:2 95:1 96:3 97:9 98:0 99:1 100:1 101:2 102:1 103:0 104:1 105:0 106:0 107:1 108:0 109:0 110:0 111:1 112:3 113:19 114:5 115:0 116:1 117:1 118:1 119:0 120:1 121:45 122:0 123:3 124:0 125:24 126:2 127:12 128:7 129:3 130:13 131:1 132:11 133:1 134:1 135:0 136:32 137:0 138:1 139:0 140:0 141:1 142:0 143:1 144:8 145:3 146:2 147:0 148:0 149:0 150:0 151:0 152:1 153:0 154:0 155:0 156:0 157:0 158:1 159:3 160:4 161:2 162:0 163:0 164:1 165:0 166:0 167:0 168:1 169:1 170:0 171:0 172:0 173:0 174:0 175:0 176:2 177:1 178:0 179:0 180:1 181:0 182:1 183:0 184:2 185:3 186:1 187:0 188:3 189:3 190:3 191:4 192:4 193:8 194:18 195:1 196:29 197:0 198:2 199:1 200:10 201:0 202:0 203:0 204:3 205:0 206:0 207:0 208:5 209:1 210:2 211:0 212:0 213:0 214:0 215:0 216:2 217:0 218:1 219:1 220:1 221:0 222:0 223:2 224:8 225:6 226:24 227:0 228:12 229:1 230:0 231:0 232:7 233:1 234:1 235:0 236:1 237:4 238:3 239:5 240:16 241:34 242:7 243:3 244:7 245:1 246:1 247:1 248:6 249:13 250:4 251:2 252:12 253:6 254:9 255:13 256:54 
0.8500336907712296 0 0 0.3969555203768166 0.7976890567960463 0 1:32 2:7 3:6 4:9 5:4 6:1 7:13 8:12 9:5 10:1 11:0 12:0 13:8 14:3 15:8 16:19 17:8 18:3 19:0 20:0 21:1 22:1 23:1 24:2 25:9 26:1 27:2 28:0 29:20 30:2 31:26 32:14 33:3 34:0 35:2 36:0 37:0 38:1 39:2 40:1 41:6 42:0 43:0 44:0 45:3 46:0 47:2 48:6 49:7 50:4 51:1 52:0 53:0 54:0 55:1 56:0 57:24 58:1 59:2 60:2 61:32 62:3 63:14 64:10 65:8 66:0 67:0 68:1 69:0 70:0 71:1 72:1 73:2 74:0 75:0 76:0 77:0 78:0 79:0 80:0 81:3 82:1 83:0 84:0 85:0 86:0 87:0 88:0 89:4 90:0 91:0 92:1 93:6 94:0 95:0 96:0 97:14 98:1 99:1 100:1 101:3 102:2 103:0 104:0 105:1 106:0 107:0 108:0 109:3 110:1 111:0 112:2 113:21 114:2 115:1 116:2 117:2 118:0 119:0 120:0 121:53 122:0 123:1 124:4 125:17 126:1 127:10 128:8 129:4 130:6 131:2 132:13 133:1 134:3 135:1 136:31 137:1 138:2 139:0 140:3 141:2 142:0 143:1 144:11 145:0 146:1 147:0 148:2 149:0 150:0 151:0 152:1 153:1 154:1 155:1 156:1 157:1 158:1 159:1 160:9 161:0 162:2 163:1 164:2 165:0 166:0 167:0 168:0 169:0 170:1 171:0 172:0 173:0 174:0 175:0 176:0 177:2 178:1 179:0 180:0 181:1 182:0 183:1 184:2 185:1 186:2 187:1 188:1 189:6 190:4 191:3 192:4 193:6 194:24 195:1 196:34 197:1 198:1 199:1 200:16 201:1 202:1 203:1 204:0 205:0 206:0 207:0 208:3 209:1 210:1 211:0 212:0 213:0 214:0 215:0 216:1 217:2 218:0 219:0 220:0 221:3 222:0 223:1 224:3 225:15 226:28 227:0 228:12 229:1 230:1 231:3 232:3 233:0 234:1 235:0 236:0 237:0 238:1 239:5 240:10 241:30 242:11 243:0 244:5 245:4 246:4 247:5 248:6 249:10 250:8 251:2 252:8 253:3 254:10 255:20 256:56 
2.279400469581059 2.592293488985697 2.262762646637156 2.391670229790749 1.575875204040782 2.536627050859928 1:33 2:9 3:3 4:6 5:10 6:0 7:7 8:18 9:7 10:1 11:4 12:2 13:13 14:2 15:19 16:18 17:12 18:3 19:0 20:2 21:0 22:1 23:2 24:0 25:10 26:0 27:1 28:1 29:21 30:2 31:17 32:20 33:6 34:0 35:0 36:0 37:0 38:0 39:2 40:2 41:0 42:1 43:0 44:0 45:2 46:0 47:0 48:0 49:8 50:1 51:0 52:1 53:2 54:0 55:0 56:1 57:29 58:1 59:2 60:2 61:47 62:3 63:15 64:13 65:5 66:1 67:1 68:4 69:2 70:0 71:1 72:1 73:1 74:0 75:0 76:0 77:1 78:0 79:1 80:2 81:2 82:0 83:0 84:0 85:1 86:0 87:0 88:1 89:2 90:1 91:0 92:0 93:1 94:1 95:3 96:5 97:8 98:1 99:1 100:2 101:0 102:0 103:0 104:0 105:2 106:0 107:1 108:0 109:1 110:0 111:2 112:2 113:18 114:1 115:1 116:1 117:1 118:1 119:0 120:1 121:39 122:3 123:3 124:1 125:29 126:1 127:7 128:7 129:6 130:6 131:1 132:17 133:0 134:3 135:0 136:21 137:2 138:0 139:0 140:0 141:0 142:1 143:1 144:12 145:1 146:0 147:0 148:2 149:0 150:1 151:0 152:3 153:0 154:0 155:0 156:0 157:2 158:0 159:0 160:4 161:4 162:2 163:0 164:0 165:0 166:0 167:1 168:4 169:0 170:1 171:0 172:0 173:0 174:0 175:0 176:2 177:0 178:1 179:0 180:0 181:0 182:3 183:0 184:1 185:1 186:2 187:0 188:2 189:0 190:1 191:1 192:15 193:8 194:13 195:3 196:48 197:2 198:1 199:0 200:16 201:1 202:2 203:0 204:3 205:0 206:0 207:1 208:7 209:2 210:2 211:0 212:2 213:0 214:1 215:1 216:1 217:0 218:2 219:1 220:3 221:1 222:0 223:0 224:3 225:10 226:19 227:1 228:11 229:1 230:1 231:0 232:4 233:1 234:0 235:0 236:1 237:2 238:2 239:3 240:15 241:18 242:9 243:2 244:4 245:1 246:0 247:0 248:7 249:9 250:6 251:2 252:8 253:6 254:5 255:18 256:57 
1.0141621939922 1.382555957628184 0.676908503627113 2.246995453147544 3.177578958207603 1.557029876218567 1:30 2:8 3:6 4:3 5:4 6:1 7:7 8:15 9:6 10:0 11:1 12:1 13:12 14:1 15:14 16:19 17:18 18:3 19:0 20:0 21:0 22:2 23:2 24:2 25:9 26:3 27:4 28:4 29:22 30:1 31:20 32:14 33:1 34:0 35:0 36:1 37:1 38:1 39:1 40:0 41:2 42:0 43:0 44:0 45:3 46:0 47:1 48:1 49:9 50:1 51:0 52:0 53:2 54:0 55:4 56:3 57:21 58:1 59:4 60:0 61:46 62:3 63:16 64:6 65:6 66:0 67:3 68:2 69:2 70:0 71:1 72:2 73:0 74:0 75:0 76:1 77:0 78:0 79:0 80:1 81:1 82:0 83:2 84:0 85:0 86:1 87:0 88:0 89:2 90:0 91:0 92:0 93:4 94:0 95:1 96:1 97:7 98:1 99:0 100:1 101:0 102:0 103:0 104:0 105:1 106:0 107:0 108:0 109:1 110:0 111:1 112:0 113:20 114:2 115:3 116:0 117:1 118:0 119:0 120:0 121:57 122:1 123:1 124:1 125:17 126:5 127:14 128:7 129:4 130:10 131:3 132:16 133:1 134:1 135:0 136:26 137:1 138:1 139:0 140:0 141:0 142:1 143:0 144:8 145:0 146:1 147:0 148:2 149:0 150:0 151:1 152:2 153:0 154:0 155:0 156:0 157:1 158:2 159:1 160:9 161:2 162:3 163:0 164:2 165:0 166:0 167:0 168:3 169:0 170:0 171:0 172:2 173:0 174:0 175:0 176:1 177:2 178:1 179:0 180:3 181:1 182:0 183:0 184:5 185:3 186:1 187:0 188:1 189:0 190:1 191:1 192:6 193:8 194:20 195:2 196:55 197:1 198:0 199:2 200:8 201:2 202:1 203:0 204:1 205:1 206:0 207:2 208:5 209:0 210:1 211:0 212:0 213:0 214:0 215:0 216:2 217:1 218:0 219:0 220:2 221:0 222:0 223:2 224:9 225:17 226:19 227:0 228:9 229:2 230:0 231:0 232:5 233:0 234:1 235:0 236:1 237:2 238:3 239:4 240:16 241:19 242:12 243:0 244:6 245:1 246:0 247:1 248:6 249:10 250:4 251:3 252:12 253:9 254:7 255:17 256:53 
2.845479249451555 1.68269751720147 1.919065310280366 2.319474169419656 2.601586958748257 2.127021805272113 1:30 2:8 3:1 4:10 5:7 6:1 7:11 8:13 9:9 10:1 11:1 12:0 13:7 14:0 15:13 16:21 17:8 18:4 19:0 20:0 21:1 22:0 23:2 24:0 25:13 26:1 27:2 28:0 29:18 30:2 31:19 32:15 33:6 34:0 35:1 36:0 37:1 38:1 39:1 40:2 41:2 42:2 43:0 44:0 45:1 46:0 47:3 48:2 49:7 50:0 51:1 52:0 53:2 54:2 55:2 56:0 57:23 58:1 59:3 60:1 61:45 62:2 63:7 64:4 65:5 66:0 67:1 68:2 69:0 70:0 71:0 72:0 73:2 74:0 75:0 76:0 77:1 78:0 79:0 80:1 81:1 82:0 83:1 84:0 85:0 86:0 87:1 88:1 89:5 90:0 91:0 92:1 93:3 94:2 95:0 96:2 97:6 98:1 99:0 100:1 101:1 102:0 103:0 104:0 105:1 106:0 107:0 108:0 109:1 110:1 111:1 112:0 113:20 114:2 115:3 116:1 117:2 118:0 119:0 120:2 121:59 122:0 123:3 124:5 125:25 126:4 127:13 128:7 129:9 130:8 131:0 132:13 133:3 134:2 135:2 136:31 137:4 138:0 139:0 140:1 141:0 142:0 143:1 144:9 145:0 146:2 147:0 148:1 149:1 150:0 151:0 152:2 153:0 154:0 155:0 156:1 157:2 158:2 159:0 160:4 161:2 162:2 163:1 164:0 165:0 166:1 167:0 168:5 169:0 170:0 171:2 172:0 173:0 174:0 175:0 176:3 177:0 178:1 179:0 180:1 181:2 182:0 183:0 184:3 185:1 186:1 187:0 188:1 189:4 190:2 191:5 192:10 193:10 194:15 195:0 196:39 197:4 198:2 199:0 200:14 201:1 202:0 203:0 204:0 205:1 206:1 207:2 208:3 209:1 210:0 211:0 212:2 213:0 214:1 215:0 216:0 217:1 218:2 219:0 220:2 221:0 222:0 223:1 224:7 225:14 226:21 227:0 228:14 229:0 230:0 231:0 232:9 233:1 234:0 235:1 236:0 237:0 238:1 239:3 240:13 241:17 242:11 243:3 244:6 245:2 246:1 247:3 248:6 249:22 250:5 251:3 252:10 253:5 254:11 255:7 256:53 
3.285890812116141 2.497005009320067 1.869766868485842 2.856385295935329 2.69394536741663 2.357247742344036 1:33 2:6 3:2 4:7 5:7 6:2 7:6 8:16 9:2 10:2 11:0 12:1 13:8 14:1 15:9 16:17 17:15 18:3 19:0 20:2 21:0 22:0 23:0 24:1 25:7 26:2 27:0 28:0 29:21 30:0 31:32 32:16 33:7 34:2 35:2 36:0 37:0 38:1 39:0 40:0 41:3 42:0 43:0 44:1 45:0 46:0 47:1 48:2 49:7 50:1 51:1 52:0 53:0 54:0 55:1 56:0 57:30 58:2 59:3 60:0 61:47 62:0 63:18 64:3 65:7 66:1 67:1 68:2 69:2 70:1 71:2 72:3 73:1 74:0 75:0 76:0 77:1 78:0 79:2 80:1 81:0 82:1 83:0 84:0 85:1 86:0 87:0 88:0 89:1 90:1 91:0 92:1 93:1 94:0 95:0 96:0 97:13 98:0 99:1 100:0 101:0 102:1 103:1 104:0 105:3 106:0 107:0 108:0 109:1 110:0 111:0 112:1 113:24 114:5 115:1 116:1 117:1 118:0 119:1 120:0 121:54 122:2 123:2 124:1 125:28 126:3 127:6 128:8 129:13 130:6 131:1 132:17 133:5 134:3 135:0 136:31 137:2 138:1 139:0 140:1 141:2 142:1 143:1 144:5 145:0 146:1 147:0 148:0 149:0 150:1 151:0 152:0 153:0 154:0 155:0 156:0 157:2 158:0 159:2 160:8 161:1 162:1 163:1 164:0 165:0 166:1 167:0 168:1 169:0 170:0 171:0 172:0 173:0 174:0 175:1 176:2 177:0 178:0 179:0 180:1 181:1 182:0 183:0 184:2 185:2 186:0 187:0 188:8 189:1 190:5 191:0 192:12 193:10 194:20 195:2 196:30 197:1 198:2 199:0 200:16 201:0 202:1 203:0 204:2 205:0 206:2 207:0 208:6 209:3 210:0 211:0 212:0 213:0 214:0 215:0 216:0 217:1 218:0 219:1 220:2 221:0 222:1 223:0 224:8 225:11 226:19 227:3 228:9 229:1 230:3 231:1 232:8 233:1 234:1 235:0 236:2 237:0 238:0 239:5 240:7 241:18 242:13 243:1 244:9 245:1 246:3 247:0 248:7 249:11 250:3 251:2 252:14 253:8 254:6 255:16 256:52 
1.189217012247136 0.8883041647382633 0.2404321678611689 1.566703950670022 1.794387565448766 2.181150084321342 1:24 2:10 3:3 4:7 5:6 6:1 7:7 8:17 9:4 10:1 11:1 12:0 13:4 14:2 15:15 16:11 17:7 18:3 19:1 20:0 21:5 22:1 23:0 24:0 25:15 26:1 27:1 28:0 29:19 30:2 31:27 32:21 33:4 34:0 35:0 36:0 37:1 38:0 39:1 40:1 41:3 42:0 43:0 44:0 45:1 46:0 47:1 48:3 49:11 50:1 51:0 52:1 53:3 54:0 55:1 56:1 57:26 58:0 59:1 60:1 61:46 62:1 63:13 64:6 65:8 66:0 67:3 68:1 69:2 70:0 71:0 72:2 73:0 74:0 75:0 76:1 77:0 78:0 79:2 80:1 81:3 82:0 83:1 84:0 85:1 86:0 87:0 88:0 89:1 90:0 91:1 92:0 93:1 94:0 95:2 96:1 97:9 98:1 99:1 100:1 101:0 102:0 103:0 104:3 105:1 106:0 107:0 108:0 109:1 110:0 111:0 112:1 113:25 114:1 115:0 116:0 117:1 118:0 119:0 120:2 121:55 122:1 123:2 124:3 125:33 126:0 127:6 128:6 129:7 130:12 131:2 132:20 133:3 134:2 135:0 136:28 137:0 138:1 139:0 140:1 141:1 142:3 143:2 144:6 145:2 146:0 147:0 148:1 149:1 150:0 151:0 152:0 153:1 154:0 155:0 156:1 157:1 158:0 159:1 160:7 161:2 162:0 163:0 164:0 165:1 166:1 167:0 168:4 169:1 170:0 171:0 172:1 173:0 174:0 175:0 176:2 177:1 178:2 179:0 180:0 181:1 182:0 183:0 184:2 185:0 186:0 187:0 188:5 189:1 190:1 191:4 192:20 193:11 194:12 195:0 196:38 197:1 198:2 199:1 200:22 201:3 202:1 203:0 204:0 205:0 206:0 207:0 208:4 209:0 210:1 211:0 212:0 213:0 214:1 215:0 216:0 217:0 218:0 219:1 220:2 221:0 222:2 223:0 224:5 225:15 226:20 227:1 228:9 229:0 230:1 231:0 232:8 233:1 234:1 235:0 236:1 237:1 238:0 239:5 240:7 241:19 242:17 243:1 244:7 245:0 246:1 247:3 248:6 249:16 250:2 251:4 252:17 253:6 254:9 255:15 256:45 
1.254074521294118 0.9375238848801878 0.4704385006571198 1.366557287422986 0.9767032000310846 0.6846258639877497 1:29 2:9 3:6 4:8 5:8 6:1 7:11 8:11 9:1 10:0 11:1 12:1 13:10 14:2 15:12 16:8 17:11 18:3 19:2 20:1 21:1 22:1 23:0 24:1 25:10 26:0 27:2 28:0 29:21 30:1 31:21 32:20 33:10 34:1 35:1 36:0 37:0 38:0 39:0 40:1 41:0 42:0 43:0 44:1 45:0 46:0 47:1 48:1 49:12 50:1 51:0 52:0 53:0 54:0 55:1 56:0 57:34 58:1 59:3 60:2 61:49 62:1 63:15 64:5 65:9 66:3 67:2 68:0 69:3 70:1 71:2 72:3 73:1 74:0 75:0 76:0 77:1 78:0 79:1 80:2 81:0 82:1 83:0 84:0 85:0 86:0 87:0 88:0 89:3 90:0 91:0 92:0 93:0 94:0 95:1 96:1 97:5 98:1 99:1 100:1 101:2 102:0 103:1 104:1 105:1 106:2 107:0 108:0 109:2 110:0 111:2 112:1 113:18 114:1 115:1 116:0 117:1 118:0 119:2 120:2 121:45 122:1 123:2 124:3 125:39 126:2 127:7 128:5 129:12 130:7 131:3 132:19 133:1 134:2 135:1 136:26 137:1 138:0 139:0 140:0 141:0 142:0 143:1 144:11 145:0 146:0 147:0 148:0 149:1 150:0 151:0 152:2 153:1 154:0 155:0 156:1 157:2 158:0 159:2 160:6 161:1 162:3 163:0 164:0 165:0 166:0 167:0 168:2 169:0 170:0 171:0 172:0 173:0 174:0 175:0 176:2 177:1 178:0 179:0 180:1 181:0 182:0 183:0 184:3 185:2 186:3 187:0 188:8 189:4 190:3 191:2 192:11 193:8 194:12 195:0 196:28 197:2 198:1 199:1 200:19 201:2 202:0 203:0 204:3 205:0 206:1 207:2 208:2 209:3 210:2 211:0 212:1 213:0 214:0 215:0 216:2 217:1 218:0 219:0 220:3 221:0 222:0 223:4 224:4 225:16 226:20 227:0 228:8 229:1 230:2 231:0 232:7 233:0 234:3 235:1 236:2 237:0 238:0 239:0 240:9 241:21 242:17 243:2 244:6 245:0 246:2 247:1 248:6 249:11 250:3 251:2 252:15 253:6 254:13 255:13 256:55 
3.704862748258281 2.268229994588196 3.223298886748663 1.119726556982619 2.014260934026117 1.252566880148834 1:39 2:10 3:7 4:10 5:8 6:1 7:11 8:13 9:7 10:0 11:1 12:1 13:11 14:1 15:12 16:13 17:12 18:3 19:2 20:1 21:2 22:0 23:3 24:0 25:14 26:1 27:0 28:0 29:22 30:4 31:17 32:14 33:8 34:1 35:1 36:1 37:1 38:1 39:1 40:1 41:3 42:0 43:1 44:0 45:4 46:1 47:2 48:1 49:13 50:0 51:3 52:3 53:2 54:1 55:2 56:1 57:25 58:0 59:2 60:1 61:41 62:4 63:12 64:15 65:7 66:2 67:0 68:1 69:0 70:0 71:2 72:2 73:1 74:0 75:2 76:1 77:1 78:1 79:2 80:0 81:1 82:0 83:0 84:0 85:1 86:0 87:0 88:0 89:4 90:0 91:0 92:0 93:3 94:1 95:0 96:2 97:8 98:2 99:0 100:0 101:1 102:0 103:0 104:1 105:1 106:0 107:1 108:1 109:2 110:0 111:0 112:0 113:20 114:1 115:0 116:0 117:1 118:1 119:0 120:1 121:41 122:3 123:3 124:1 125:26 126:2 127:11 128:13 129:5 130:8 131:0 132:11 133:1 134:4 135:2 136:41 137:2 138:0 139:0 140:0 141:3 142:0 143:0 144:7 145:1 146:1 147:0 148:1 149:1 150:0 151:0 152:1 153:0 154:1 155:0 156:1 157:1 158:1 159:1 160:6 161:0 162:0 163:0 164:0 165:1 166:0 167:0 168:4 169:0 170:1 171:0 172:1 173:0 174:0 175:0 176:2 177:3 178:0 179:0 180:1 181:0 182:1 183:0 184:3 185:0 186:3 187:0 188:5 189:4 190:2 191:3 192:16 193:5 194:12 195:0 196:17 197:0 198:3 199:1 200:9 201:2 202:2 203:0 204:6 205:1 206:0 207:2 208:6 209:1 210:1 211:0 212:1 213:0 214:0 215:1 216:0 217:2 218:0 219:0 220:2 221:1 222:2 223:1 224:7 225:10 226:14 227:0 228:11 229:0 230:2 231:0 232:4 233:1 234:1 235:0 236:1 237:0 238:2 239:6 240:13 241:19 242:9 243:1 244:2 245:1 246:0 247:1 248:5 249:9 250:4 251:3 252:9 253:11 254:8 255:16 256:59 
1.721561881062367 0.6792677125020807 0.6133831540659974 0 0.6755920370109457 0 1:39 2:5 3:4 4:8 5:12 6:3 7:11 8:7 9:8 10:0 11:4 12:0 13:10 14:4 15:8 16:9 17:21 18:4 19:0 20:1 21:1 22:0 23:1 24:1 25:18 26:1 27:1 28:2 29:19 30:3 31:16 32:12 33:6 34:4 35:2 36:1 37:1 38:1 39:3 40:0 41:3 42:0 43:0 44:0 45:4 46:1 47:3 48:2 49:14 50:2 51:1 52:1 53:2 54:0 55:1 56:1 57:22 58:0 59:0 60:2 61:33 62:3 63:16 64:14 65:5 66:0 67:1 68:1 69:1 70:0 71:2 72:4 73:1 74:0 75:0 76:0 77:1 78:0 79:3 80:2 81:2 82:0 83:0 84:0 85:0 86:0 87:0 88:0 89:3 90:0 91:0 92:0 93:2 94:1 95:1 96:2 97:8 98:2 99:2 100:1 101:0 102:0 103:0 104:1 105:1 106:0 107:0 108:0 109:1 110:0 111:0 112:1 113:16 114:6 115:2 116:0 117:2 118:1 119:0 120:0 121:48 122:1 123:4 124:4 125:25 126:1 127:11 128:13 129:5 130:7 131:0 132:12 133:0 134:0 135:1 136:33 137:1 138:0 139:1 140:1 141:2 142:0 143:2 144:8 145:1 146:0 147:0 148:2 149:0 150:1 151:0 152:5 153:1 154:1 155:0 156:1 157:2 158:1 159:2 160:10 161:3 162:0 163:0 164:1 165:0 166:0 167:0 168:0 169:0 170:0 171:0 172:0 173:0 174:1 175:0 176:4 177:2 178:1 179:0 180:1 181:0 182:0 183:1 184:2 185:5 186:0 187:0 188:4 189:2 190:3 191:4 192:7 193:2 194:20 195:2 196:18 197:1 198:0 199:1 200:10 201:0 202:4 203:0 204:1 205:0 206:0 207:1 208:6 209:2 210:2 211:0 212:1 213:0 214:0 215:0 216:0 217:3 218:1 219:0 220:0 221:2 222:1 223:2 224:10 225:11 226:10 227:1 228:12 229:0 230:0 231:1 232:4 233:2 234:1 235:1 236:3 237:1 238:1 239:3 240:15 241:17 242:8 243:1 244:4 245:2 246:1 247:1 248:6 249:14 250:6 251:1 252:9 253:8 254:12 255:20 256:58 
0.7348184355526766 0.5687456338453436 0 0.1726442746174726 0.340657343990205 0.5854943232009566 1:46 2:13 3:4 4:5 5:7 6:3 7:8 8:10 9:8 10:3 11:2 12:1 13:10 14:1 15:5 16:7 17:13 18:3 19:2 20:2 21:5 22:1 23:2 24:2 25:18 26:2 27:2 28:0 29:14 30:1 31:16 32:8 33:10 34:0 35:0 36:0 37:1 38:0 39:1 40:2 41:3 42:0 43:0 44:1 45:2 46:0 47:1 48:1 49:12 50:2 51:2 52:0 53:3 54:0 55:1 56:2 57:18 58:2 59:2 60:0 61:27 62:4 63:12 64:12 65:11 66:0 67:1 68:1 69:4 70:1 71:1 72:3 73:2 74:0 75:0 76:0 77:1 78:0 79:1 80:1 81:1 82:1 83:0 84:0 85:0 86:1 87:0 88:0 89:1 90:1 91:0 92:0 93:2 94:1 95:1 96:4 97:6 98:0 99:1 100:1 101:1 102:0 103:0 104:1 105:0 106:1 107:0 108:1 109:3 110:0 111:0 112:3 113:17 114:3 115:0 116:3 117:2 118:1 119:1 120:0 121:50 122:0 123:8 124:3 125:22 126:3 127:14 128:10 129:5 130:5 131:2 132:14 133:2 134:1 135:3 136:31 137:1 138:0 139:0 140:1 141:0 142:2 143:3 144:13 145:1 146:1 147:0 148:3 149:1 150:0 151:0 152:2 153:0 154:0 155:0 156:1 157:1 158:0 159:0 160:10 161:0 162:1 163:0 164:1 165:0 166:1 167:0 168:2 169:0 170:0 171:0 172:1 173:0 174:0 175:1 176:2 177:0 178:0 179:2 180:1 181:1 182:0 183:0 184:0 185:4 186:1 187:0 188:1 189:2 190:0 191:3 192:11 193:8 194:11 195:0 196:22 197:0 198:2 199:0 200:12 201:0 202:0 203:0 204:4 205:2 206:2 207:0 208:3 209:0 210:1 211:1 212:4 213:0 214:1 215:0 216:3 217:1 218:0 219:0 220:2 221:1 222:0 223:3 224:9 225:16 226:26 227:1 228:2 229:2 230:2 231:0 232:14 233:1 234:2 235:0 236:6 237:0 238:1 239:2 240:14 241:20 242:12 243:2 244:4 245:0 246:1 247:0 248:5 249:15 250:7 251:2 252:7 253:13 254:9 255:19 256:49 
0.8447231254843386 1.293640254212455 1.400199256621186 0.8964580482808707 1.881088721455387 1.295354190039512 1:26 2:8 3:8 4:6 5:4 6:3 7:8 8:8 9:4 10:2 11:1 12:1 13:10 14:3 15:14 16:18 17:15 18:1 19:3 20:0 21:7 22:0 23:3 24:0 25:12 26:2 27:2 28:0 29:27 30:2 31:38 32:16 33:7 34:1 35:1 36:0 37:1 38:0 39:1 40:0 41:3 42:0 43:0 44:0 45:2 46:0 47:1 48:2 49:13 50:1 51:2 52:0 53:3 54:0 55:0 56:0 57:17 58:0 59:2 60:1 61:27 62:3 63:14 64:12 65:8 66:0 67:0 68:2 69:2 70:0 71:0 72:1 73:1 74:0 75:0 76:0 77:0 78:1 79:0 80:0 81:3 82:1 83:0 84:0 85:0 86:0 87:0 88:0 89:1 90:0 91:0 92:0 93:4 94:1 95:0 96:2 97:7 98:1 99:0 100:0 101:2 102:0 103:1 104:1 105:0 106:0 107:1 108:0 109:1 110:3 111:1 112:1 113:28 114:0 115:3 116:0 117:1 118:0 119:0 120:1 121:34 122:3 123:1 124:1 125:15 126:2 127:10 128:11 129:7 130:7 131:1 132:18 133:1 134:2 135:0 136:28 137:1 138:0 139:1 140:1 141:1 142:0 143:1 144:15 145:0 146:1 147:0 148:1 149:0 150:0 151:1 152:2 153:0 154:1 155:0 156:3 157:0 158:1 159:4 160:9 161:1 162:3 163:0 164:0 165:1 166:2 167:0 168:3 169:1 170:0 171:0 172:0 173:0 174:0 175:1 176:3 177:1 178:0 179:0 180:3 181:0 182:0 183:0 184:4 185:2 186:1 187:1 188:1 189:2 190:0 191:2 192:8 193:9 194:11 195:4 196:28 197:1 198:1 199:0 200:20 201:1 202:0 203:0 204:1 205:0 206:1 207:0 208:7 209:2 210:0 211:1 212:2 213:0 214:1 215:2 216:0 217:3 218:1 219:0 220:0 221:0 222:0 223:3 224:5 225:16 226:16 227:0 228:11 229:0 230:3 231:0 232:5 233:2 234:3 235:1 236:1 237:0 238:2 239:3 240:11 241:26 242:16 243:2 244:5 245:2 246:2 247:3 248:11 249:15 250:2 251:2 252:12 253:2 254:7 255:18 256:52 
1.294591502883136 1.66557502417216 1.185020741810709 2.014269458101975 1.9263013222689 2.145932978456125 1:36 2:5 3:7 4:8 5:9 6:2 7:7 8:10 9:12 10:2 11:1 12:1 13:13 14:3 15:12 16:8 17:11 18:0 19:1 20:0 21:2 22:0 23:1 24:1 25:12 26:0 27:3 28:1 29:22 30:1 31:24 32:15 33:9 34:2 35:1 36:0 37:0 38:0 39:1 40:0 41:1 42:0 43:3 44:0 45:2 46:0 47:1 48:5 49:15 50:1 51:0 52:0 53:6 54:1 55:1 56:1 57:25 58:1 59:2 60:3 61:37 62:5 63:10 64:14 65:6 66:2 67:0 68:2 69:4 70:1 71:0 72:4 73:0 74:0 75:1 76:0 77:1 78:0 79:1 80:1 81:2 82:1 83:0 84:0 85:2 86:1 87:0 88:0 89:5 90:1 91:0 92:0 93:1 94:0 95:1 96:2 97:11 98:1 99:1 100:0 101:1 102:0 103:0 104:1 105:2 106:0 107:0 108:0 109:1 110:1 111:0 112:1 113:22 114:1 115:3 116:0 117:3 118:0 119:0 120:0 121:39 122:3 123:2 124:2 125:22 126:5 127:8 128:15 129:5 130:6 131:1 132:14 133:0 134:0 135:1 136:24 137:1 138:0 139:0 140:2 141:1 142:0 143:1 144:14 145:1 146:2 147:1 148:2 149:1 150:2 151:0 152:2 153:0 154:0 155:0 156:0 157:1 158:1 159:3 160:7 161:1 162:1 163:0 164:2 165:0 166:1 167:2 168:2 169:0 170:1 171:1 172:1 173:0 174:0 175:1 176:5 177:2 178:1 179:0 180:1 181:0 182:0 183:0 184:1 185:0 186:1 187:0 188:4 189:3 190:0 191:1 192:12 193:5 194:8 195:1 196:29 197:2 198:3 199:1 200:15 201:1 202:1 203:0 204:2 205:2 206:0 207:0 208:7 209:3 210:2 211:0 212:0 213:1 214:1 215:0 216:4 217:2 218:0 219:0 220:3 221:0 222:1 223:2 224:3 225:14 226:15 227:1 228:6 229:0 230:3 231:1 232:6 233:1 234:4 235:0 236:3 237:1 238:2 239:2 240:11 241:18 242:11 243:1 244:6 245:0 246:1 247:0 248:10 249:12 250:9 251:3 252:6 253:5 254:2 255:18 256:55 
1.728509075935711 1.666576613005166 2.698334666179493 1.832149477626035 2.007316914189174 1.321554390366837 1:37 2:4 3:6 4:8 5:7 6:0 7:9 8:6 9:8 10:2 11:1 12:0 13:7 14:5 15:12 16:19 17:14 18:1 19:1 20:1 21:2 22:0 23:5 24:2 25:13 26:3 27:2 28:0 29:22 30:1 31:31 32:14 33:6 34:0 35:2 36:0 37:1 38:0 39:0 40:0 41:6 42:0 43:0 44:0 45:2 46:0 47:1 48:4 49:15 50:1 51:1 52:1 53:5 54:0 55:1 56:0 57:17 58:1 59:3 60:1 61:38 62:2 63:15 64:10 65:3 66:3 67:0 68:4 69:1 70:0 71:2 72:1 73:3 74:0 75:0 76:0 77:0 78:0 79:1 80:1 81:2 82:0 83:0 84:0 85:0 86:0 87:0 88:1 89:6 90:0 91:0 92:0 93:2 94:0 95:4 96:2 97:7 98:2 99:0 100:5 101:0 102:1 103:1 104:0 105:1 106:2 107:0 108:0 109:0 110:1 111:0 112:0 113:22 114:1 115:3 116:1 117:1 118:0 119:0 120:0 121:33 122:2 123:1 124:3 125:19 126:3 127:7 128:16 129:6 130:7 131:4 132:6 133:0 134:5 135:3 136:30 137:0 138:1 139:1 140:1 141:0 142:1 143:1 144:7 145:3 146:0 147:1 148:1 149:0 150:0 151:0 152:3 153:2 154:1 155:0 156:1 157:1 158:0 159:2 160:5 161:0 162:1 163:0 164:3 165:1 166:1 167:0 168:3 169:0 170:0 171:0 172:1 173:1 174:0 175:0 176:4 177:3 178:3 179:0 180:0 181:1 182:0 183:0 184:4 185:1 186:1 187:0 188:3 189:4 190:1 191:1 192:10 193:6 194:13 195:3 196:23 197:2 198:2 199:0 200:9 201:0 202:0 203:0 204:0 205:1 206:1 207:0 208:9 209:3 210:0 211:0 212:1 213:2 214:3 215:0 216:1 217:2 218:0 219:0 220:4 221:0 222:1 223:0 224:8 225:15 226:15 227:1 228:6 229:1 230:0 231:1 232:5 233:0 234:3 235:0 236:4 237:0 238:0 239:6 240:9 241:30 242:13 243:2 244:5 245:1 246:0 247:1 248:8 249:11 250:5 251:3 252:14 253:7 254:11 255:17 256:52 
0.9394613677083908 2.359919981788012 1.590712792981428 1.920818133941579 2.000522141788519 2.329826201388719 1:39 2:8 3:5 4:13 5:6 6:1 7:13 8:10 9:3 10:2 11:2 12:1 13:8 14:2 15:6 16:17 17:11 18:1 19:3 20:0 21:4 22:2 23:0 24:0 25:9 26:1 27:0 28:0 29:15 30:1 31:14 32:15 33:2 34:1 35:1 36:0 37:5 38:0 39:2 40:0 41:2 42:0 43:0 44:0 45:3 46:0 47:0 48:2 49:10 50:1 51:1 52:2 53:1 54:0 55:2 56:1 57:26 58:0 59:1 60:4 61:43 62:2 63:14 64:10 65:9 66:2 67:1 68:2 69:0 70:1 71:0 72:3 73:2 74:0 75:1 76:0 77:0 78:0 79:3 80:1 81:2 82:0 83:0 84:0 85:0 86:0 87:0 88:0 89:5 90:0 91:0 92:0 93:2 94:1 95:2 96:0 97:7 98:2 99:0 100:2 101:0 102:1 103:0 104:1 105:1 106:0 107:0 108:0 109:1 110:0 111:0 112:0 113:23 114:1 115:2 116:0 117:3 118:1 119:0 120:2 121:49 122:0 123:4 124:2 125:23 126:1 127:11 128:12 129:8 130:7 131:3 132:12 133:3 134:4 135:4 136:21 137:1 138:1 139:0 140:4 141:2 142:2 143:0 144:8 145:1 146:2 147:0 148:0 149:0 150:0 151:0 152:0 153:0 154:1 155:0 156:1 157:3 158:1 159:4 160:9 161:1 162:1 163:2 164:2 165:0 166:0 167:1 168:3 169:0 170:0 171:0 172:1 173:1 174:0 175:0 176:0 177:1 178:1 179:0 180:2 181:0 182:0 183:1 184:2 185:2 186:0 187:2 188:2 189:1 190:3 191:2 192:9 193:9 194:12 195:3 196:34 197:1 198:4 199:1 200:12 201:2 202:1 203:0 204:4 205:1 206:0 207:0 208:5 209:3 210:0 211:0 212:3 213:2 214:1 215:0 216:1 217:0 218:1 219:0 220:2 221:0 222:0 223:2 224:7 225:14 226:10 227:1 228:10 229:0 230:2 231:1 232:6 233:1 234:0 235:0 236:3 237:1 238:0 239:4 240:10 241:14 242:11 243:2 244:3 245:2 246:0 247:0 248:11 249:15 250:9 251:3 252:11 253:6 254:9 255:18 256:60 
0.6578639896293813 1.230629842323705 1.064830905931293 0.7939851311199473 0.5918429581130477 0.9924895511674904 1:34 2:9 3:8 4:8 5:14 6:1 7:6 8:9 9:10 10:1 11:2 12:0 13:10 14:0 15:7 16:13 17:17 18:1 19:2 20:0 21:0 22:0 23:1 24:2 25:10 26:2 27:0 28:0 29:20 30:2 31:9 32:9 33:3 34:1 35:2 36:1 37:2 38:0 39:1 40:5 41:2 42:0 43:0 44:0 45:3 46:0 47:1 48:0 49:11 50:0 51:1 52:0 53:3 54:0 55:4 56:0 57:26 58:0 59:1 60:2 61:42 62:4 63:15 64:11 65:11 66:3 67:5 68:2 69:1 70:1 71:0 72:1 73:0 74:0 75:1 76:0 77:1 78:0 79:2 80:1 81:0 82:1 83:0 84:0 85:0 86:0 87:0 88:1 89:2 90:0 91:0 92:0 93:2 94:0 95:3 96:1 97:8 98:2 99:1 100:0 101:1 102:0 103:1 104:0 105:2 106:0 107:1 108:1 109:1 110:0 111:0 112:3 113:19 114:3 115:0 116:3 117:4 118:1 119:1 120:1 121:35 122:0 123:6 124:5 125:28 126:2 127:8 128:7 129:8 130:4 131:4 132:19 133:0 134:3 135:3 136:14 137:0 138:0 139:0 140:0 141:0 142:1 143:2 144:8 145:0 146:0 147:0 148:2 149:0 150:0 151:1 152:2 153:1 154:2 155:1 156:0 157:1 158:1 159:2 160:10 161:0 162:0 163:1 164:2 165:0 166:0 167:0 168:2 169:0 170:0 171:0 172:1 173:1 174:0 175:0 176:0 177:2 178:0 179:0 180:0 181:0 182:2 183:2 184:4 185:1 186:3 187:1 188:3 189:5 190:0 191:3 192:7 193:10 194:15 195:4 196:35 197:0 198:3 199:2 200:11 201:3 202:1 203:0 204:3 205:1 206:0 207:1 208:4 209:4 210:0 211:1 212:3 213:0 214:0 215:0 216:1 217:1 218:1 219:0 220:0 221:1 222:1 223:4 224:14 225:13 226:15 227:1 228:9 229:0 230:0 231:0 232:3 233:2 234:0 235:0 236:2 237:1 238:2 239:2 240:14 241:28 242:9 243:2 244:7 245:3 246:1 247:0 248:7 249:8 250:7 251:3 252:13 253:7 254:11 255:13 256:57 
0.8357023120214794 1.491711044744018 0.1726000865175711 0.7182939588036173 0.7358635547341913 1.122367548686682 1:34 2:7 3:5 4:5 5:12 6:0 7:8 8:9 9:4 10:2 11:0 12:1 13:11 14:2 15:12 16:13 17:8 18:1 19:1 20:0 21:4 22:0 23:3 24:0 25:18 26:1 27:2 28:1 29:11 30:6 31:10 32:14 33:11 34:1 35:1 36:0 37:2 38:0 39:2 40:0 41:5 42:0 43:0 44:0 45:2 46:0 47:2 48:2 49:6 50:0 51:1 52:1 53:1 54:0 55:2 56:1 57:26 58:0 59:1 60:3 61:43 62:2 63:10 64:11 65:6 66:3 67:2 68:4 69:0 70:1 71:1 72:2 73:1 74:0 75:0 76:0 77:0 78:0 79:0 80:1 81:3 82:1 83:0 84:0 85:1 86:0 87:1 88:2 89:2 90:1 91:0 92:1 93:1 94:1 95:1 96:2 97:10 98:2 99:4 100:2 101:2 102:0 103:0 104:0 105:0 106:0 107:1 108:0 109:1 110:0 111:0 112:2 113:19 114:3 115:3 116:1 117:2 118:0 119:1 120:1 121:52 122:1 123:6 124:0 125:24 126:0 127:12 128:13 129:5 130:11 131:1 132:16 133:1 134:4 135:1 136:19 137:2 138:1 139:1 140:1 141:1 142:2 143:0 144:7 145:1 146:0 147:0 148:3 149:0 150:0 151:2 152:0 153:1 154:2 155:2 156:1 157:1 158:2 159:3 160:6 161:2 162:1 163:0 164:0 165:0 166:0 167:0 168:2 169:1 170:0 171:0 172:0 173:0 174:2 175:0 176:5 177:0 178:2 179:0 180:0 181:1 182:0 183:0 184:3 185:1 186:0 187:0 188:3 189:1 190:1 191:2 192:7 193:11 194:17 195:3 196:23 197:1 198:2 199:0 200:19 201:1 202:3 203:0 204:1 205:0 206:1 207:0 208:1 209:2 210:1 211:0 212:0 213:0 214:0 215:0 216:0 217:2 218:0 219:0 220:0 221:1 222:1 223:1 224:9 225:9 226:13 227:1 228:8 229:1 230:0 231:2 232:8 233:1 234:2 235:1 236:4 237:0 238:3 239:3 240:7 241:22 242:11 243:1 244:7 245:3 246:1 247:0 248:9 249:11 250:9 251:4 252:21 253:6 254:9 255:21 256:54 
1.63188169476972 1.292122834348106 0.637501444393699 0.9468244697717094 1.441777802099995 1.14601531368722 1:29 2:5 3:6 4:4 5:10 6:1 7:9 8:13 9:13 10:0 11:0 12:0 13:5 14:3 15:4 16:12 17:7 18:0 19:1 20:0 21:2 22:2 23:0 24:1 25:8 26:0 27:5 28:0 29:15 30:3 31:37 32:12 33:5 34:1 35:0 36:0 37:2 38:0 39:0 40:0 41:4 42:0 43:0 44:0 45:5 46:1 47:0 48:1 49:13 50:2 51:1 52:0 53:1 54:0 55:1 56:0 57:28 58:2 59:1 60:1 61:31 62:1 63:9 64:8 65:10 66:3 67:1 68:1 69:2 70:0 71:1 72:1 73:1 74:0 75:0 76:0 77:1 78:0 79:2 80:2 81:4 82:0 83:1 84:0 85:1 86:1 87:1 88:0 89:5 90:0 91:0 92:0 93:2 94:0 95:3 96:1 97:14 98:0 99:0 100:1 101:0 102:0 103:1 104:1 105:0 106:0 107:0 108:0 109:1 110:0 111:0 112:1 113:25 114:4 115:2 116:1 117:3 118:1 119:0 120:0 121:61 122:3 123:2 124:1 125:26 126:2 127:7 128:14 129:5 130:8 131:2 132:21 133:1 134:1 135:1 136:30 137:0 138:0 139:0 140:2 141:0 142:1 143:1 144:10 145:2 146:1 147:0 148:0 149:0 150:0 151:0 152:1 153:0 154:0 155:1 156:1 157:1 158:1 159:1 160:7 161:2 162:2 163:0 164:0 165:1 166:1 167:0 168:0 169:0 170:1 171:0 172:0 173:1 174:0 175:1 176:0 177:2 178:1 179:0 180:0 181:0 182:0 183:0 184:2 185:3 186:3 187:0 188:6 189:4 190:0 191:3 192:5 193:6 194:16 195:1 196:50 197:1 198:4 199:1 200:14 201:0 202:0 203:0 204:0 205:1 206:0 207:0 208:2 209:1 210:0 211:0 212:3 213:0 214:0 215:0 216:2 217:0 218:1 219:1 220:1 221:1 222:0 223:1 224:6 225:12 226:14 227:2 228:9 229:1 230:3 231:0 232:6 233:2 234:3 235:0 236:0 237:0 238:0 239:3 240:9 241:9 242:11 243:1 244:5 245:5 246:0 247:2 248:4 249:19 250:13 251:1 252:12 253:7 254:7 255:23 256:51 
0.8529848391372322 1.467230250675414 0.9236594157664993 1.361834415516447 1.267535696639581 1.153069209171623 1:43 2:5 3:7 4:6 5:17 6:3 7:9 8:8 9:10 10:2 11:1 12:3 13:8 14:1 15:11 16:10 17:6 18:2 19:2 20:0 21:1 22:0 23:2 24:1 25:8 26:0 27:1 28:2 29:18 30:3 31:40 32:7 33:6 34:1 35:0 36:0 37:3 38:1 39:0 40:0 41:1 42:0 43:1 44:1 45:2 46:0 47:0 48:2 49:13 50:4 51:2 52:0 53:0 54:1 55:0 56:0 57:25 58:3 59:2 60:4 61:27 62:3 63:11 64:10 65:9 66:2 67:0 68:0 69:3 70:2 71:0 72:1 73:1 74:1 75:0 76:0 77:2 78:0 79:0 80:1 81:1 82:1 83:0 84:1 85:2 86:0 87:0 88:0 89:1 90:0 91:0 92:0 93:6 94:1 95:1 96:2 97:15 98:1 99:1 100:2 101:2 102:1 103:1 104:0 105:1 106:0 107:1 108:0 109:1 110:1 111:3 112:2 113:28 114:1 115:1 116:1 117:2 118:1 119:0 120:1 121:58 122:1 123:2 124:1 125:14 126:3 127:7 128:7 129:4 130:6 131:0 132:12 133:2 134:1 135:1 136:29 137:0 138:3 139:2 140:2 141:0 142:0 143:0 144:8 145:1 146:1 147:0 148:0 149:0 150:0 151:1 152:2 153:0 154:1 155:0 156:0 157:0 158:0 159:2 160:10 161:1 162:1 163:0 164:0 165:0 166:0 167:0 168:1 169:1 170:0 171:0 172:0 173:0 174:1 175:0 176:0 177:2 178:1 179:0 180:3 181:0 182:0 183:1 184:1 185:0 186:1 187:0 188:6 189:0 190:1 191:7 192:11 193:11 194:13 195:0 196:34 197:0 198:2 199:2 200:9 201:3 202:0 203:0 204:2 205:1 206:0 207:0 208:3 209:1 210:2 211:0 212:4 213:0 214:0 215:0 216:0 217:0 218:1 219:0 220:0 221:1 222:0 223:1 224:10 225:8 226:15 227:0 228:7 229:0 230:1 231:1 232:6 233:2 234:2 235:0 236:5 237:1 238:1 239:2 240:9 241:13 242:13 243:1 244:7 245:2 246:2 247:1 248:4 249:16 250:9 251:4 252:11 253:15 254:11 255:16 256:54 
0.6257144123716581 1.392766642619852 0.5442768209780597 1.143483475395296 0.7655648913311276 0.9134405753764446 1:43 2:10 3:7 4:7 5:10 6:4 7:8 8:10 9:5 10:3 11:2 12:0 13:6 14:3 15:6 16:14 17:12 18:2 19:2 20:1 21:1 22:0 23:2 24:2 25:8 26:1 27:2 28:0 29:10 30:1 31:26 32:9 33:10 34:0 35:1 36:1 37:0 38:0 39:1 40:0 41:0 42:0 43:0 44:0 45:1 46:0 47:0 48:3 49:11 50:2 51:0 52:0 53:1 54:0 55:2 56:2 57:22 58:2 59:0 60:3 61:32 62:2 63:11 64:10 65:12 66:4 67:1 68:1 69:2 70:0 71:0 72:5 73:2 74:0 75:0 76:1 77:1 78:0 79:2 80:0 81:0 82:0 83:0 84:0 85:1 86:0 87:1 88:0 89:3 90:0 91:0 92:0 93:2 94:0 95:0 96:1 97:4 98:0 99:1 100:0 101:2 102:0 103:3 104:0 105:0 106:2 107:1 108:0 109:0 110:0 111:0 112:1 113:26 114:2 115:1 116:1 117:1 118:0 119:1 120:1 121:57 122:3 123:2 124:3 125:20 126:0 127:5 128:7 129:4 130:8 131:0 132:13 133:2 134:0 135:1 136:28 137:2 138:0 139:0 140:3 141:1 142:3 143:2 144:11 145:2 146:2 147:0 148:4 149:0 150:1 151:0 152:2 153:1 154:0 155:0 156:1 157:0 158:0 159:3 160:10 161:2 162:5 163:1 164:3 165:1 166:1 167:0 168:0 169:0 170:0 171:0 172:0 173:1 174:1 175:0 176:1 177:2 178:0 179:1 180:2 181:1 182:0 183:0 184:3 185:1 186:1 187:0 188:5 189:3 190:4 191:3 192:6 193:8 194:7 195:3 196:39 197:2 198:2 199:1 200:14 201:1 202:1 203:1 204:1 205:2 206:1 207:0 208:2 209:4 210:2 211:0 212:4 213:0 214:0 215:0 216:3 217:0 218:2 219:2 220:2 221:0 222:0 223:3 224:5 225:16 226:14 227:0 228:8 229:0 230:1 231:0 232:5 233:0 234:4 235:0 236:0 237:1 238:4 239:2 240:16 241:18 242:9 243:0 244:2 245:1 246:5 247:1 248:8 249:16 250:5 251:3 252:10 253:8 254:14 255:17 256:55 
0.1710412573464426 1.180777103547698 0.2385671235426182 0.4950022268004857 1.075783548822006 0.8298283963125256 1:28 2:9 3:2 4:3 5:10 6:2 7:13 8:15 9:7 10:2 11:3 12:4 13:15 14:3 15:5 16:10 17:14 18:1 19:0 20:0 21:3 22:1 23:2 24:0 25:11 26:0 27:2 28:1 29:13 30:1 31:17 32:9 33:6 34:0 35:1 36:0 37:2 38:0 39:1 40:0 41:1 42:0 43:1 44:0 45:2 46:0 47:1 48:1 49:10 50:2 51:3 52:3 53:2 54:0 55:1 56:0 57:27 58:1 59:3 60:3 61:42 62:5 63:13 64:8 65:7 66:0 67:2 68:2 69:6 70:0 71:0 72:2 73:1 74:0 75:0 76:0 77:2 78:0 79:2 80:1 81:0 82:0 83:0 84:0 85:0 86:1 87:0 88:1 89:1 90:0 91:1 92:0 93:3 94:0 95:2 96:0 97:5 98:2 99:0 100:0 101:2 102:0 103:0 104:0 105:2 106:0 107:0 108:1 109:2 110:0 111:0 112:2 113:25 114:0 115:1 116:0 117:2 118:0 119:1 120:1 121:47 122:3 123:2 124:3 125:22 126:6 127:10 128:7 129:9 130:5 131:2 132:24 133:2 134:4 135:3 136:39 137:0 138:0 139:0 140:0 141:1 142:1 143:0 144:10 145:1 146:0 147:0 148:2 149:1 150:0 151:1 152:2 153:0 154:0 155:0 156:2 157:0 158:1 159:3 160:13 161:3 162:0 163:0 164:1 165:0 166:0 167:0 168:1 169:0 170:0 171:0 172:1 173:0 174:0 175:0 176:3 177:1 178:0 179:0 180:2 181:0 182:0 183:1 184:2 185:2 186:1 187:1 188:2 189:2 190:3 191:3 192:16 193:6 194:5 195:1 196:35 197:1 198:2 199:0 200:13 201:0 202:1 203:0 204:4 205:1 206:2 207:0 208:5 209:1 210:2 211:0 212:3 213:0 214:0 215:0 216:2 217:0 218:0 219:0 220:2 221:0 222:0 223:1 224:12 225:6 226:12 227:1 228:7 229:0 230:2 231:2 232:10 233:3 234:3 235:0 236:1 237:0 238:1 239:4 240:8 241:26 242:9 243:2 244:5 245:2 246:1 247:0 248:5 249:14 250:9 251:1 252:6 253:8 254:6 255:19 256:56 
2.425485120093275 1.749531164350902 1.121439397019856 1.249891508220301 1.515987958774332 2.275106797490856 1:31 2:12 3:7 4:7 5:13 6:1 7:5 8:17 9:9 10:0 11:1 12:0 13:11 14:2 15:12 16:15 17:9 18:3 19:1 20:0 21:2 22:0 23:2 24:0 25:15 26:0 27:0 28:1 29:19 30:1 31:12 32:7 33:5 34:0 35:1 36:1 37:0 38:0 39:0 40:0 41:1 42:0 43:0 44:0 45:5 46:1 47:1 48:2 49:10 50:2 51:1 52:2 53:1 54:0 55:2 56:0 57:22 58:1 59:2 60:1 61:52 62:6 63:9 64:14 65:9 66:1 67:0 68:3 69:2 70:0 71:1 72:2 73:1 74:0 75:0 76:0 77:0 78:0 79:4 80:0 81:2 82:0 83:0 84:0 85:0 86:0 87:0 88:0 89:2 90:2 91:0 92:1 93:2 94:0 95:1 96:4 97:9 98:0 99:0 100:0 101:2 102:0 103:0 104:1 105:4 106:0 107:0 108:0 109:2 110:0 111:1 112:4 113:22 114:2 115:1 116:1 117:1 118:0 119:0 120:1 121:58 122:1 123:6 124:0 125:23 126:2 127:10 128:8 129:7 130:11 131:0 132:15 133:1 134:4 135:2 136:35 137:0 138:1 139:0 140:3 141:1 142:1 143:2 144:9 145:1 146:2 147:0 148:1 149:1 150:1 151:1 152:2 153:0 154:0 155:0 156:0 157:1 158:0 159:2 160:9 161:3 162:0 163:1 164:2 165:0 166:0 167:0 168:3 169:0 170:0 171:0 172:0 173:2 174:0 175:0 176:2 177:0 178:0 179:0 180:1 181:1 182:0 183:2 184:1 185:1 186:1 187:0 188:2 189:1 190:2 191:2 192:17 193:4 194:9 195:0 196:30 197:1 198:1 199:2 200:21 201:0 202:1 203:0 204:5 205:0 206:1 207:1 208:7 209:1 210:0 211:0 212:1 213:0 214:0 215:0 216:1 217:0 218:1 219:0 220:1 221:0 222:3 223:4 224:11 225:12 226:11 227:1 228:11 229:1 230:2 231:1 232:5 233:2 234:3 235:0 236:0 237:1 238:0 239:2 240:10 241:13 242:8 243:0 244:4 245:2 246:0 247:1 248:6 249:13 250:7 251:3 252:12 253:5 254:6 255:16 256:50 
2.191019447807556 2.393365632473441 1.76818162749469 1.365257369233325 2.369393877316625 1.043691208732487 1:30 2:9 3:5 4:5 5:16 6:2 7:4 8:12 9:13 10:1 11:1 12:3 13:7 14:1 15:7 16:15 17:18 18:3 19:0 20:0 21:4 22:1 23:0 24:1 25:6 26:2 27:2 28:1 29:19 30:1 31:17 32:10 33:4 34:2 35:1 36:0 37:0 38:0 39:0 40:1 41:1 42:0 43:1 44:0 45:4 46:0 47:4 48:3 49:15 50:2 51:2 52:1 53:1 54:2 55:0 56:2 57:28 58:0 59:2 60:0 61:46 62:2 63:16 64:6 65:9 66:4 67:1 68:2 69:0 70:0 71:2 72:1 73:1 74:0 75:0 76:0 77:1 78:0 79:1 80:2 81:2 82:0 83:0 84:1 85:0 86:0 87:0 88:0 89:2 90:0 91:1 92:1 93:5 94:0 95:2 96:3 97:11 98:0 99:2 100:1 101:0 102:1 103:1 104:2 105:4 106:0 107:0 108:0 109:0 110:0 111:1 112:3 113:11 114:2 115:0 116:0 117:1 118:0 119:0 120:0 121:48 122:1 123:1 124:0 125:22 126:4 127:11 128:11 129:3 130:7 131:2 132:26 133:1 134:2 135:4 136:32 137:0 138:0 139:0 140:0 141:0 142:2 143:1 144:7 145:2 146:1 147:1 148:2 149:0 150:1 151:1 152:1 153:2 154:2 155:0 156:3 157:2 158:0 159:2 160:11 161:0 162:0 163:0 164:2 165:0 166:0 167:0 168:2 169:0 170:0 171:0 172:0 173:0 174:2 175:1 176:0 177:2 178:0 179:0 180:1 181:0 182:0 183:0 184:3 185:2 186:1 187:0 188:2 189:1 190:2 191:2 192:7 193:5 194:8 195:1 196:35 197:1 198:0 199:2 200:18 201:0 202:1 203:0 204:5 205:1 206:1 207:0 208:6 209:0 210:1 211:0 212:3 213:0 214:1 215:0 216:4 217:1 218:0 219:0 220:4 221:0 222:0 223:1 224:12 225:11 226:8 227:0 228:10 229:3 230:2 231:0 232:6 233:0 234:2 235:0 236:1 237:0 238:1 239:1 240:10 241:24 242:9 243:1 244:6 245:0 246:1 247:1 248:5 249:12 250:5 251:2 252:7 253:4 254:7 255:28 256:57 
1.665464975037588 2.072771764205311 1.104522207184972 1.430555468515676 1.428646142491232 1.274893010113911 1:53 2:8 3:2 4:6 5:8 6:1 7:10 8:17 9:3 10:1 11:2 12:1 13:15 14:4 15:8 16:14 17:14 18:2 19:1 20:1 21:1 22:0 23:1 24:1 25:16 26:0 27:1 28:1 29:15 30:0 31:23 32:16 33:7 34:1 35:1 36:1 37:0 38:1 39:1 40:1 41:5 42:0 43:1 44:1 45:3 46:0 47:0 48:3 49:9 50:2 51:1 52:0 53:2 54:1 55:1 56:0 57:23 58:2 59:3 60:1 61:23 62:1 63:8 64:8 65:11 66:1 67:0 68:2 69:5 70:3 71:1 72:1 73:4 74:0 75:0 76:0 77:2 78:0 79:3 80:0 81:4 82:0 83:1 84:0 85:1 86:1 87:0 88:0 89:2 90:0 91:0 92:0 93:4 94:0 95:1 96:2 97:9 98:0 99:0 100:1 101:0 102:0 103:0 104:0 105:1 106:0 107:0 108:0 109:0 110:0 111:1 112:1 113:19 114:3 115:0 116:0 117:5 118:1 119:0 120:0 121:48 122:2 123:1 124:1 125:27 126:0 127:3 128:11 129:4 130:3 131:4 132:18 133:1 134:1 135:2 136:30 137:0 138:0 139:1 140:1 141:0 142:1 143:1 144:12 145:0 146:0 147:0 148:0 149:0 150:0 151:1 152:1 153:0 154:1 155:0 156:1 157:0 158:0 159:1 160:10 161:1 162:1 163:0 164:1 165:0 166:0 167:0 168:2 169:2 170:0 171:0 172:0 173:0 174:1 175:0 176:1 177:2 178:1 179:0 180:3 181:1 182:0 183:0 184:0 185:4 186:2 187:0 188:2 189:3 190:4 191:2 192:10 193:2 194:18 195:0 196:34 197:3 198:3 199:0 200:23 201:0 202:1 203:2 204:2 205:1 206:0 207:0 208:9 209:1 210:1 211:0 212:0 213:1 214:0 215:0 216:2 217:0 218:0 219:1 220:1 221:0 222:0 223:2 224:5 225:11 226:9 227:2 228:11 229:0 230:0 231:2 232:4 233:1 234:2 235:0 236:1 237:2 238:1 239:1 240:11 241:27 242:12 243:0 244:7 245:3 246:4 247:3 248:10 249:10 250:6 251:3 252:16 253:9 254:11 255:14 256:42 
1.673180126654304 1.723728854403576 1.945251961754248 0.9272015506205316 1.464537412371543 1.320810979092566 1:27 2:7 3:7 4:6 5:9 6:2 7:5 8:11 9:5 10:0 11:2 12:0 13:12 14:1 15:10 16:15 17:11 18:1 19:2 20:2 21:3 22:1 23:2 24:1 25:10 26:1 27:0 28:2 29:18 30:1 31:22 32:11 33:10 34:0 35:1 36:1 37:1 38:0 39:0 40:1 41:2 42:1 43:0 44:0 45:1 46:0 47:0 48:4 49:9 50:2 51:0 52:0 53:6 54:0 55:2 56:1 57:19 58:2 59:3 60:1 61:38 62:3 63:6 64:6 65:7 66:2 67:0 68:2 69:1 70:0 71:1 72:2 73:2 74:1 75:0 76:0 77:0 78:0 79:0 80:1 81:2 82:1 83:0 84:0 85:0 86:0 87:0 88:0 89:3 90:0 91:0 92:0 93:1 94:1 95:1 96:1 97:10 98:1 99:0 100:1 101:0 102:0 103:0 104:0 105:2 106:0 107:1 108:0 109:1 110:0 111:1 112:1 113:24 114:3 115:0 116:1 117:1 118:0 119:1 120:1 121:38 122:0 123:3 124:1 125:20 126:3 127:6 128:4 129:6 130:11 131:3 132:29 133:1 134:3 135:1 136:46 137:1 138:0 139:0 140:0 141:2 142:0 143:1 144:8 145:0 146:3 147:1 148:2 149:0 150:0 151:0 152:5 153:0 154:0 155:0 156:0 157:0 158:0 159:2 160:7 161:2 162:3 163:0 164:2 165:0 166:1 167:0 168:2 169:0 170:1 171:0 172:0 173:0 174:1 175:0 176:1 177:3 178:0 179:0 180:1 181:0 182:0 183:0 184:0 185:3 186:1 187:0 188:4 189:1 190:3 191:4 192:7 193:13 194:9 195:0 196:34 197:1 198:2 199:0 200:24 201:0 202:3 203:0 204:1 205:0 206:0 207:0 208:11 209:2 210:2 211:0 212:1 213:0 214:0 215:0 216:2 217:2 218:0 219:1 220:0 221:1 222:0 223:0 224:6 225:11 226:16 227:2 228:7 229:0 230:3 231:1 232:7 233:1 234:2 235:0 236:2 237:2 238:6 239:3 240:13 241:27 242:8 243:2 244:6 245:4 246:2 247:3 248:10 249:14 250:11 251:2 252:10 253:8 254:4 255:14 256:56 
0.6452786316165028 0.4360868989155437 1.790137233814111 1.1086021273221 1.166327691038883 0.3912002217564646 1:29 2:3 3:3 4:6 5:5 6:3 7:10 8:16 9:8 10:2 11:1 12:2 13:5 14:1 15:14 16:19 17:14 18:4 19:0 20:1 21:2 22:0 23:2 24:1 25:7 26:3 27:0 28:1 29:16 30:2 31:25 32:18 33:4 34:1 35:1 36:0 37:1 38:0 39:0 40:0 41:2 42:0 43:0 44:0 45:0 46:0 47:0 48:2 49:17 50:0 51:0 52:0 53:4 54:0 55:0 56:0 57:26 58:0 59:1 60:2 61:41 62:2 63:8 64:9 65:7 66:0 67:1 68:2 69:1 70:0 71:1 72:1 73:1 74:0 75:0 76:1 77:1 78:0 79:1 80:0 81:0 82:0 83:0 84:0 85:0 86:1 87:0 88:0 89:0 90:0 91:1 92:0 93:3 94:0 95:3 96:3 97:12 98:0 99:0 100:0 101:0 102:0 103:0 104:0 105:2 106:1 107:0 108:1 109:2 110:0 111:1 112:3 113:23 114:2 115:3 116:0 117:3 118:0 119:0 120:0 121:44 122:0 123:1 124:1 125:23 126:2 127:9 128:6 129:6 130:8 131:4 132:24 133:0 134:3 135:0 136:42 137:0 138:0 139:2 140:3 141:0 142:3 143:1 144:9 145:2 146:0 147:0 148:3 149:0 150:0 151:0 152:0 153:1 154:0 155:0 156:1 157:2 158:0 159:4 160:9 161:0 162:2 163:0 164:1 165:1 166:1 167:1 168:3 169:0 170:1 171:0 172:0 173:0 174:0 175:0 176:1 177:1 178:0 179:0 180:0 181:0 182:0 183:0 184:1 185:3 186:1 187:0 188:4 189:0 190:2 191:4 192:10 193:4 194:7 195:0 196:37 197:2 198:3 199:0 200:27 201:0 202:1 203:1 204:1 205:0 206:0 207:1 208:6 209:2 210:2 211:0 212:2 213:0 214:0 215:0 216:3 217:0 218:1 219:0 220:2 221:0 222:3 223:1 224:7 225:11 226:15 227:0 228:4 229:0 230:0 231:0 232:7 233:2 234:2 235:0 236:2 237:1 238:0 239:3 240:12 241:28 242:14 243:2 244:5 245:3 246:0 247:0 248:8 249:16 250:5 251:4 252:14 253:9 254:6 255:12 256:51 
-1.370515607978325 1.729770701328114 0 0.1880027185363621 0.763533813828189 1.0682905553792 1:31 2:11 3:4 4:6 5:9 6:2 7:7 8:13 9:9 10:1 11:0 12:1 13:12 14:0 15:16 16:30 17:8 18:0 19:1 20:1 21:1 22:2 23:1 24:2 25:11 26:1 27:1 28:2 29:15 30:4 31:19 32:18 33:8 34:0 35:0 36:0 37:0 38:0 39:1 40:3 41:2 42:1 43:0 44:0 45:2 46:0 47:0 48:1 49:13 50:0 51:0 52:1 53:1 54:0 55:0 56:0 57:30 58:3 59:2 60:2 61:49 62:2 63:14 64:8 65:10 66:3 67:0 68:1 69:3 70:1 71:0 72:2 73:1 74:0 75:0 76:0 77:1 78:1 79:0 80:0 81:2 82:1 83:0 84:0 85:0 86:0 87:0 88:0 89:3 90:0 91:0 92:0 93:2 94:0 95:2 96:2 97:5 98:0 99:1 100:0 101:1 102:0 103:1 104:0 105:3 106:1 107:1 108:0 109:0 110:0 111:0 112:3 113:23 114:3 115:0 116:3 117:3 118:2 119:0 120:0 121:71 122:4 123:4 124:2 125:27 126:3 127:9 128:6 129:6 130:5 131:1 132:13 133:0 134:1 135:1 136:21 137:4 138:0 139:0 140:2 141:0 142:0 143:0 144:7 145:0 146:1 147:1 148:0 149:0 150:1 151:0 152:1 153:1 154:0 155:0 156:1 157:2 158:2 159:0 160:6 161:4 162:0 163:0 164:1 165:0 166:1 167:0 168:0 169:0 170:1 171:0 172:0 173:2 174:0 175:1 176:0 177:1 178:1 179:1 180:2 181:2 182:0 183:0 184:1 185:1 186:0 187:0 188:1 189:1 190:3 191:3 192:15 193:1 194:12 195:0 196:21 197:1 198:1 199:1 200:12 201:2 202:1 203:1 204:2 205:0 206:0 207:0 208:4 209:3 210:3 211:1 212:2 213:0 214:0 215:0 216:0 217:3 218:2 219:0 220:2 221:0 222:0 223:1 224:7 225:14 226:16 227:0 228:7 229:1 230:0 231:3 232:5 233:1 234:3 235:1 236:1 237:0 238:5 239:4 240:11 241:11 242:5 243:2 244:10 245:3 246:2 247:1 248:2 249:17 250:7 251:2 252:4 253:8 254:8 255:19 256:56 
-1.217153670662633 0.9943216840418483 0.8466566411680364 0.856432114001475 0.9290032471563795 0.7897233409753898 1:36 2:9 3:5 4:7 5:9 6:4 7:9 8:20 9:13 10:2 11:0 12:1 13:9 14:2 15:14 16:15 17:8 18:0 19:1 20:0 21:2 22:0 23:1 24:2 25:5 26:0 27:3 28:0 29:22 30:0 31:15 32:18 33:9 34:2 35:0 36:0 37:2 38:0 39:0 40:0 41:6 42:0 43:1 44:1 45:2 46:0 47:0 48:3 49:9 50:3 51:0 52:0 53:1 54:0 55:1 56:1 57:38 58:2 59:5 60:2 61:52 62:2 63:10 64:8 65:6 66:0 67:1 68:1 69:3 70:0 71:2 72:2 73:1 74:0 75:0 76:0 77:0 78:0 79:0 80:1 81:4 82:0 83:1 84:0 85:0 86:0 87:0 88:0 89:2 90:0 91:0 92:0 93:3 94:1 95:2 96:0 97:3 98:0 99:1 100:1 101:1 102:0 103:0 104:0 105:2 106:0 107:0 108:0 109:0 110:0 111:1 112:4 113:14 114:8 115:0 116:0 117:4 118:0 119:1 120:5 121:52 122:5 123:3 124:2 125:36 126:8 127:6 128:10 129:5 130:8 131:0 132:13 133:0 134:2 135:2 136:17 137:1 138:0 139:0 140:1 141:0 142:2 143:0 144:9 145:3 146:2 147:0 148:0 149:0 150:0 151:0 152:1 153:2 154:2 155:0 156:1 157:2 158:1 159:3 160:4 161:2 162:5 163:1 164:1 165:0 166:0 167:0 168:1 169:0 170:0 171:0 172:0 173:0 174:0 175:0 176:3 177:0 178:0 179:0 180:0 181:0 182:1 183:1 184:0 185:0 186:2 187:0 188:1 189:5 190:2 191:2 192:14 193:6 194:9 195:1 196:27 197:2 198:0 199:0 200:6 201:2 202:2 203:0 204:5 205:0 206:1 207:0 208:5 209:2 210:2 211:0 212:1 213:0 214:0 215:0 216:0 217:1 218:2 219:2 220:4 221:0 222:0 223:1 224:7 225:13 226:10 227:0 228:6 229:0 230:2 231:1 232:3 233:2 234:0 235:2 236:0 237:0 238:1 239:2 240:17 241:22 242:10 243:3 244:9 245:3 246:0 247:2 248:5 249:14 250:7 251:4 252:7 253:9 254:6 255:14 256:51 
-0.5147736926547076 1.214183944804512 0.4025951227799784 0.3916020719343155 0.318253696593214 0.8766467534988115 1:38 2:10 3:9 4:5 5:10 6:3 7:10 8:14 9:18 10:1 11:3 12:1 13:6 14:2 15:16 16:26 17:8 18:1 19:0 20:0 21:3 22:1 23:1 24:2 25:10 26:2 27:0 28:1 29:17 30:3 31:13 32:17 33:12 34:1 35:0 36:1 37:0 38:1 39:1 40:1 41:6 42:0 43:0 44:0 45:1 46:0 47:1 48:3 49:8 50:0 51:3 52:0 53:3 54:0 55:1 56:2 57:25 58:3 59:1 60:1 61:51 62:3 63:18 64:9 65:8 66:1 67:0 68:0 69:2 70:0 71:2 72:3 73:1 74:0 75:0 76:0 77:1 78:0 79:0 80:2 81:0 82:0 83:0 84:0 85:0 86:0 87:1 88:0 89:2 90:1 91:0 92:1 93:3 94:0 95:2 96:5 97:11 98:2 99:0 100:1 101:2 102:0 103:1 104:0 105:3 106:0 107:1 108:0 109:0 110:0 111:1 112:2 113:15 114:3 115:1 116:2 117:2 118:0 119:2 120:0 121:68 122:2 123:6 124:2 125:37 126:6 127:7 128:12 129:2 130:6 131:1 132:9 133:0 134:1 135:2 136:13 137:1 138:3 139:0 140:4 141:2 142:1 143:1 144:15 145:2 146:2 147:1 148:2 149:0 150:0 151:0 152:2 153:1 154:0 155:0 156:0 157:0 158:4 159:1 160:7 161:0 162:0 163:0 164:2 165:1 166:0 167:0 168:0 169:0 170:1 171:0 172:0 173:0 174:2 175:0 176:0 177:0 178:1 179:0 180:2 181:4 182:0 183:0 184:1 185:6 186:0 187:0 188:0 189:2 190:1 191:3 192:17 193:6 194:14 195:0 196:16 197:2 198:2 199:1 200:10 201:0 202:0 203:0 204:1 205:0 206:0 207:0 208:5 209:1 210:0 211:2 212:2 213:0 214:0 215:0 216:0 217:3 218:1 219:0 220:2 221:1 222:1 223:1 224:6 225:7 226:5 227:1 228:4 229:4 230:2 231:0 232:8 233:2 234:1 235:0 236:0 237:0 238:2 239:0 240:9 241:17 242:9 243:0 244:4 245:0 246:2 247:1 248:4 249:15 250:9 251:2 252:9 253:7 254:7 255:14 256:45 
-2.31107169454407 1.554141549503872 1.4476776950165 2.067800296333045 2.041925378820427 0.5194736700409501 1:34 2:14 3:5 4:10 5:6 6:3 7:6 8:11 9:7 10:0 11:2 12:0 13:6 14:1 15:11 16:16 17:11 18:5 19:1 20:3 21:1 22:0 23:0 24:0 25:15 26:0 27:2 28:3 29:23 30:2 31:32 32:12 33:8 34:1 35:0 36:1 37:0 38:1 39:0 40:0 41:3 42:0 43:0 44:0 45:1 46:0 47:2 48:4 49:10 50:0 51:1 52:1 53:2 54:0 55:1 56:1 57:26 58:1 59:2 60:0 61:39 62:2 63:12 64:12 65:10 66:2 67:0 68:1 69:1 70:0 71:2 72:3 73:2 74:0 75:0 76:0 77:1 78:0 79:0 80:0 81:4 82:0 83:0 84:0 85:0 86:0 87:1 88:1 89:2 90:0 91:0 92:0 93:4 94:1 95:1 96:2 97:8 98:1 99:1 100:2 101:1 102:0 103:0 104:0 105:2 106:0 107:0 108:0 109:1 110:1 111:3 112:2 113:18 114:2 115:0 116:1 117:0 118:0 119:1 120:1 121:53 122:1 123:6 124:1 125:26 126:2 127:16 128:11 129:8 130:6 131:3 132:10 133:0 134:3 135:0 136:28 137:1 138:1 139:0 140:3 141:2 142:0 143:0 144:13 145:0 146:3 147:0 148:2 149:0 150:0 151:0 152:1 153:0 154:0 155:1 156:2 157:0 158:2 159:0 160:5 161:0 162:1 163:0 164:0 165:0 166:0 167:1 168:0 169:0 170:0 171:0 172:1 173:0 174:0 175:1 176:2 177:4 178:0 179:0 180:1 181:0 182:0 183:1 184:1 185:4 186:1 187:2 188:2 189:2 190:3 191:3 192:6 193:7 194:15 195:1 196:30 197:0 198:1 199:1 200:15 201:2 202:0 203:0 204:1 205:0 206:0 207:1 208:7 209:0 210:0 211:1 212:2 213:0 214:0 215:0 216:3 217:0 218:0 219:1 220:2 221:0 222:2 223:1 224:5 225:8 226:12 227:1 228:14 229:0 230:1 231:0 232:9 233:1 234:2 235:0 236:0 237:1 238:1 239:9 240:11 241:24 242:12 243:2 244:3 245:0 246:1 247:2 248:9 249:12 250:4 251:1 252:6 253:5 254:7 255:17 256:49 
-2.640205801239357 1.934324117152826 2.147207180918733 2.594811043713032 2.992360459190178 1.796165035438977 1:35 2:4 3:5 4:10 5:4 6:2 7:6 8:16 9:7 10:3 11:0 12:1 13:6 14:0 15:9 16:14 17:12 18:4 19:3 20:1 21:1 22:0 23:4 24:0 25:10 26:2 27:1 28:0 29:19 30:3 31:22 32:11 33:7 34:0 35:0 36:2 37:1 38:0 39:0 40:0 41:2 42:0 43:0 44:0 45:2 46:1 47:2 48:4 49:15 50:0 51:0 52:1 53:1 54:1 55:2 56:1 57:23 58:0 59:0 60:0 61:40 62:0 63:10 64:15 65:10 66:2 67:2 68:1 69:1 70:0 71:1 72:2 73:1 74:0 75:0 76:0 77:1 78:0 79:0 80:0 81:6 82:0 83:0 84:0 85:0 86:0 87:1 88:0 89:5 90:1 91:0 92:0 93:2 94:0 95:0 96:3 97:11 98:0 99:1 100:1 101:0 102:3 103:1 104:1 105:5 106:0 107:0 108:0 109:0 110:0 111:2 112:1 113:17 114:2 115:1 116:0 117:1 118:1 119:3 120:1 121:39 122:2 123:5 124:2 125:20 126:3 127:7 128:9 129:9 130:9 131:2 132:17 133:1 134:2 135:2 136:28 137:1 138:0 139:0 140:3 141:1 142:1 143:0 144:17 145:0 146:1 147:0 148:0 149:0 150:0 151:0 152:1 153:0 154:0 155:1 156:0 157:4 158:4 159:1 160:6 161:0 162:1 163:1 164:1 165:0 166:0 167:1 168:2 169:1 170:0 171:0 172:0 173:1 174:0 175:0 176:2 177:0 178:1 179:0 180:0 181:0 182:0 183:0 184:2 185:2 186:2 187:1 188:4 189:1 190:4 191:4 192:7 193:7 194:19 195:2 196:35 197:0 198:2 199:0 200:13 201:0 202:0 203:0 204:1 205:1 206:3 207:0 208:4 209:2 210:2 211:0 212:1 213:0 214:0 215:0 216:2 217:2 218:1 219:0 220:1 221:0 222:1 223:0 224:4 225:10 226:16 227:1 228:11 229:2 230:0 231:1 232:5 233:1 234:1 235:0 236:1 237:1 238:2 239:6 240:11 241:33 242:12 243:0 244:7 245:0 246:2 247:2 248:6 249:15 250:9 251:1 252:7 253:5 254:2 255:22 256:57 
-2.173046474013348 0.5203361104875335 0.7929749231159995 0.7235681292263115 1.824753224354372 0.1023263541895467 1:37 2:6 3:9 4:9 5:4 6:2 7:6 8:15 9:5 10:1 11:0 12:3 13:9 14:1 15:7 16:23 17:10 18:3 19:1 20:0 21:4 22:0 23:2 24:2 25:18 26:3 27:0 28:1 29:23 30:2 31:23 32:10 33:3 34:2 35:0 36:1 37:0 38:0 39:2 40:0 41:3 42:0 43:0 44:0 45:3 46:0 47:3 48:0 49:11 50:2 51:0 52:0 53:3 54:1 55:1 56:1 57:24 58:2 59:3 60:2 61:35 62:1 63:9 64:14 65:10 66:1 67:0 68:2 69:0 70:2 71:3 72:1 73:0 74:0 75:1 76:0 77:1 78:0 79:0 80:0 81:5 82:0 83:0 84:0 85:2 86:1 87:0 88:0 89:0 90:0 91:0 92:0 93:3 94:1 95:0 96:3 97:7 98:1 99:2 100:1 101:1 102:0 103:0 104:0 105:1 106:1 107:0 108:0 109:1 110:0 111:3 112:2 113:18 114:0 115:1 116:1 117:1 118:0 119:0 120:0 121:47 122:2 123:5 124:1 125:25 126:3 127:18 128:14 129:5 130:5 131:2 132:15 133:1 134:0 135:2 136:29 137:0 138:1 139:0 140:1 141:2 142:0 143:1 144:11 145:1 146:0 147:0 148:0 149:0 150:0 151:0 152:2 153:1 154:2 155:0 156:0 157:0 158:0 159:2 160:5 161:1 162:0 163:0 164:3 165:0 166:0 167:1 168:2 169:1 170:1 171:0 172:1 173:0 174:0 175:1 176:2 177:1 178:1 179:0 180:2 181:2 182:1 183:0 184:1 185:2 186:1 187:0 188:2 189:2 190:3 191:2 192:10 193:12 194:18 195:1 196:29 197:0 198:2 199:2 200:13 201:0 202:1 203:1 204:3 205:0 206:1 207:0 208:5 209:1 210:1 211:0 212:0 213:0 214:0 215:0 216:0 217:1 218:2 219:0 220:2 221:1 222:3 223:0 224:5 225:7 226:24 227:1 228:9 229:0 230:1 231:0 232:4 233:3 234:1 235:0 236:4 237:1 238:1 239:5 240:11 241:31 242:11 243:1 244:4 245:0 246:5 247:2 248:3 249:11 250:2 251:1 252:3 253:7 254:9 255:18 256:52 
-1.339771623178609 2.605347361585374 2.080838357476307 1.820562497802334 2.801085114807605 1.277121816988131 1:30 2:7 3:9 4:7 5:6 6:3 7:6 8:14 9:8 10:1 11:0 12:0 13:10 14:0 15:8 16:26 17:13 18:3 19:1 20:0 21:0 22:0 23:2 24:0 25:20 26:1 27:2 28:0 29:20 30:0 31:22 32:17 33:3 34:1 35:0 36:0 37:1 38:1 39:0 40:1 41:3 42:0 43:0 44:0 45:3 46:0 47:2 48:0 49:12 50:2 51:0 52:0 53:1 54:0 55:1 56:1 57:22 58:1 59:3 60:2 61:39 62:2 63:13 64:8 65:7 66:0 67:2 68:2 69:3 70:0 71:0 72:2 73:3 74:0 75:0 76:0 77:0 78:0 79:1 80:1 81:4 82:0 83:0 84:0 85:1 86:2 87:2 88:0 89:1 90:0 91:0 92:0 93:3 94:1 95:1 96:2 97:9 98:0 99:1 100:1 101:0 102:0 103:1 104:1 105:1 106:0 107:1 108:0 109:2 110:0 111:2 112:3 113:24 114:2 115:1 116:1 117:3 118:0 119:2 120:2 121:52 122:2 123:4 124:2 125:17 126:3 127:7 128:12 129:7 130:7 131:2 132:16 133:1 134:1 135:2 136:32 137:0 138:0 139:1 140:3 141:0 142:4 143:1 144:12 145:1 146:1 147:0 148:0 149:0 150:0 151:0 152:1 153:3 154:0 155:1 156:2 157:0 158:2 159:0 160:4 161:2 162:1 163:0 164:0 165:1 166:0 167:0 168:4 169:0 170:0 171:1 172:0 173:0 174:0 175:0 176:2 177:3 178:0 179:1 180:0 181:0 182:1 183:0 184:0 185:0 186:1 187:0 188:2 189:2 190:0 191:0 192:14 193:10 194:20 195:0 196:32 197:0 198:1 199:0 200:13 201:0 202:3 203:1 204:0 205:0 206:1 207:0 208:13 209:2 210:0 211:0 212:3 213:1 214:0 215:1 216:1 217:1 218:0 219:0 220:3 221:0 222:0 223:1 224:2 225:9 226:12 227:0 228:14 229:0 230:2 231:0 232:8 233:1 234:0 235:0 236:0 237:1 238:2 239:6 240:10 241:21 242:10 243:2 244:6 245:1 246:3 247:1 248:10 249:13 250:6 251:2 252:5 253:4 254:8 255:17 256:50 
-0.9642813239463088 1.386698531207023 1.090886494491612 1.165687807346987 0.7241898111911997 1.222516435029132 1:32 2:14 3:4 4:11 5:3 6:5 7:6 8:17 9:2 10:1 11:0 12:1 13:6 14:0 15:17 16:14 17:11 18:5 19:0 20:0 21:2 22:2 23:2 24:0 25:9 26:1 27:4 28:1 29:21 30:2 31:32 32:14 33:6 34:1 35:0 36:2 37:0 38:0 39:1 40:0 41:1 42:0 43:0 44:0 45:1 46:0 47:2 48:1 49:6 50:1 51:0 52:0 53:1 54:0 55:1 56:1 57:18 58:1 59:0 60:0 61:36 62:1 63:10 64:4 65:6 66:0 67:0 68:0 69:1 70:0 71:2 72:1 73:0 74:0 75:0 76:0 77:0 78:0 79:2 80:1 81:1 82:0 83:0 84:0 85:0 86:0 87:0 88:1 89:1 90:0 91:0 92:0 93:3 94:1 95:0 96:1 97:8 98:1 99:0 100:0 101:3 102:1 103:3 104:0 105:0 106:0 107:0 108:0 109:1 110:0 111:0 112:0 113:21 114:1 115:2 116:0 117:1 118:0 119:1 120:1 121:54 122:5 123:2 124:2 125:20 126:1 127:9 128:6 129:4 130:4 131:1 132:27 133:1 134:4 135:1 136:37 137:2 138:0 139:0 140:3 141:1 142:0 143:2 144:15 145:1 146:1 147:2 148:1 149:0 150:0 151:0 152:1 153:0 154:0 155:0 156:1 157:2 158:0 159:1 160:8 161:1 162:0 163:1 164:2 165:0 166:0 167:1 168:2 169:0 170:1 171:0 172:1 173:0 174:0 175:0 176:1 177:2 178:0 179:0 180:1 181:1 182:1 183:0 184:1 185:2 186:0 187:2 188:2 189:0 190:0 191:1 192:9 193:13 194:17 195:0 196:61 197:0 198:0 199:2 200:24 201:2 202:0 203:0 204:3 205:2 206:1 207:0 208:7 209:1 210:0 211:0 212:2 213:1 214:0 215:0 216:3 217:0 218:2 219:0 220:1 221:0 222:2 223:0 224:8 225:5 226:14 227:2 228:15 229:1 230:1 231:0 232:4 233:1 234:0 235:1 236:3 237:1 238:1 239:3 240:16 241:13 242:7 243:2 244:6 245:2 246:1 247:1 248:9 249:15 250:6 251:3 252:12 253:6 254:4 255:15 256:52 
-1.455131573550578 1.306609816803095 0.1996036228875489 0.870428552766437 1.576129043569296 1.727089099930907 1:35 2:10 3:0 4:10 5:8 6:3 7:6 8:19 9:6 10:3 11:2 12:4 13:11 14:1 15:12 16:13 17:12 18:2 19:1 20:2 21:1 22:0 23:0 24:2 25:10 26:3 27:1 28:3 29:21 30:1 31:23 32:14 33:3 34:2 35:0 36:1 37:0 38:1 39:1 40:2 41:2 42:0 43:1 44:0 45:1 46:0 47:1 48:3 49:8 50:1 51:0 52:0 53:1 54:0 55:1 56:0 57:19 58:1 59:1 60:2 61:38 62:3 63:12 64:6 65:7 66:1 67:1 68:0 69:3 70:0 71:0 72:2 73:0 74:1 75:0 76:0 77:0 78:1 79:0 80:0 81:1 82:0 83:0 84:0 85:0 86:0 87:0 88:1 89:1 90:0 91:0 92:0 93:0 94:0 95:1 96:1 97:7 98:0 99:0 100:0 101:1 102:0 103:2 104:1 105:0 106:0 107:0 108:1 109:1 110:1 111:2 112:2 113:20 114:1 115:1 116:0 117:1 118:1 119:1 120:1 121:57 122:2 123:3 124:2 125:25 126:2 127:8 128:9 129:5 130:7 131:1 132:23 133:1 134:1 135:2 136:34 137:1 138:1 139:0 140:3 141:1 142:0 143:2 144:5 145:2 146:0 147:1 148:2 149:1 150:0 151:1 152:0 153:1 154:1 155:2 156:1 157:1 158:0 159:2 160:4 161:0 162:1 163:0 164:1 165:0 166:0 167:1 168:1 169:0 170:1 171:0 172:0 173:0 174:0 175:0 176:2 177:0 178:0 179:0 180:1 181:0 182:1 183:0 184:0 185:2 186:0 187:0 188:3 189:5 190:3 191:5 192:10 193:7 194:20 195:3 196:54 197:0 198:3 199:2 200:13 201:0 202:0 203:0 204:2 205:1 206:0 207:0 208:7 209:2 210:1 211:0 212:4 213:0 214:1 215:0 216:0 217:1 218:4 219:0 220:1 221:2 222:1 223:3 224:10 225:13 226:11 227:0 228:16 229:0 230:1 231:1 232:9 233:1 234:2 235:0 236:2 237:0 238:1 239:1 240:11 241:10 242:6 243:2 244:7 245:1 246:0 247:1 248:12 249:9 250:5 251:3 252:4 253:5 254:6 255:22 256:54 
-1.904546118379802 2.294188881994915 1.930800543468872 3.004689896762173 2.945106572503908 2.235328482647832 1:31 2:11 3:7 4:6 5:5 6:1 7:4 8:19 9:3 10:0 11:0 12:0 13:5 14:0 15:18 16:17 17:8 18:2 19:0 20:0 21:1 22:0 23:2 24:2 25:7 26:1 27:1 28:0 29:25 30:3 31:27 32:21 33:10 34:0 35:0 36:0 37:0 38:1 39:0 40:2 41:2 42:0 43:0 44:0 45:1 46:0 47:2 48:1 49:7 50:2 51:0 52:0 53:1 54:0 55:0 56:0 57:25 58:2 59:3 60:1 61:55 62:1 63:8 64:4 65:8 66:1 67:1 68:2 69:0 70:0 71:1 72:3 73:0 74:0 75:0 76:1 77:0 78:0 79:2 80:1 81:2 82:0 83:0 84:0 85:1 86:0 87:1 88:0 89:2 90:0 91:0 92:0 93:1 94:0 95:1 96:1 97:4 98:1 99:1 100:1 101:3 102:0 103:0 104:2 105:1 106:0 107:0 108:0 109:0 110:0 111:0 112:0 113:17 114:2 115:2 116:2 117:3 118:0 119:0 120:1 121:59 122:4 123:1 124:2 125:21 126:2 127:7 128:9 129:8 130:10 131:3 132:12 133:4 134:0 135:2 136:36 137:1 138:0 139:1 140:3 141:1 142:1 143:1 144:5 145:1 146:1 147:0 148:0 149:0 150:0 151:0 152:0 153:0 154:1 155:0 156:0 157:1 158:0 159:2 160:3 161:2 162:1 163:0 164:0 165:0 166:1 167:1 168:2 169:0 170:0 171:1 172:0 173:0 174:1 175:1 176:4 177:1 178:1 179:2 180:2 181:0 182:1 183:0 184:4 185:0 186:0 187:1 188:4 189:0 190:3 191:2 192:17 193:11 194:14 195:3 196:35 197:1 198:2 199:0 200:17 201:0 202:1 203:0 204:2 205:1 206:1 207:0 208:5 209:3 210:1 211:0 212:1 213:0 214:0 215:0 216:2 217:0 218:1 219:0 220:1 221:2 222:0 223:3 224:10 225:14 226:20 227:0 228:4 229:1 230:3 231:0 232:7 233:2 234:4 235:0 236:2 237:0 238:0 239:2 240:9 241:15 242:14 243:2 244:10 245:3 246:4 247:0 248:6 249:18 250:1 251:2 252:13 253:6 254:7 255:13 256:47 
-2.315189479970292 2.956107095626947 0.8488213766656487 1.772674801718787 2.510224581911536 2.512686597683092 1:26 2:8 3:3 4:4 5:10 6:2 7:3 8:16 9:1 10:0 11:1 12:1 13:9 14:2 15:15 16:22 17:14 18:2 19:0 20:1 21:1 22:0 23:1 24:2 25:10 26:2 27:2 28:0 29:17 30:3 31:29 32:16 33:5 34:1 35:1 36:1 37:0 38:1 39:1 40:0 41:2 42:0 43:0 44:0 45:4 46:0 47:0 48:1 49:7 50:1 51:0 52:1 53:1 54:0 55:0 56:0 57:33 58:2 59:1 60:1 61:48 62:2 63:10 64:7 65:6 66:3 67:1 68:1 69:0 70:0 71:1 72:3 73:0 74:0 75:0 76:0 77:2 78:1 79:1 80:0 81:4 82:0 83:0 84:0 85:0 86:0 87:1 88:0 89:0 90:0 91:0 92:0 93:2 94:0 95:1 96:1 97:13 98:1 99:1 100:0 101:1 102:0 103:0 104:0 105:3 106:0 107:0 108:0 109:0 110:0 111:1 112:3 113:13 114:3 115:1 116:1 117:2 118:0 119:1 120:0 121:50 122:1 123:5 124:7 125:28 126:6 127:11 128:5 129:7 130:11 131:2 132:16 133:2 134:2 135:1 136:33 137:1 138:0 139:1 140:1 141:0 142:0 143:0 144:12 145:2 146:0 147:0 148:1 149:0 150:0 151:0 152:0 153:1 154:0 155:0 156:0 157:1 158:0 159:1 160:5 161:1 162:2 163:1 164:2 165:0 166:3 167:0 168:3 169:1 170:0 171:0 172:0 173:0 174:0 175:0 176:2 177:1 178:1 179:0 180:0 181:0 182:0 183:0 184:3 185:3 186:0 187:1 188:2 189:2 190:1 191:2 192:22 193:7 194:17 195:0 196:34 197:4 198:0 199:1 200:21 201:0 202:1 203:0 204:0 205:1 206:0 207:1 208:2 209:2 210:2 211:0 212:2 213:0 214:0 215:0 216:3 217:2 218:0 219:0 220:1 221:0 222:0 223:0 224:3 225:16 226:22 227:1 228:11 229:0 230:1 231:1 232:3 233:0 234:1 235:0 236:1 237:2 238:0 239:3 240:4 241:16 242:13 243:2 244:6 245:1 246:1 247:1 248:4 249:14 250:5 251:0 252:14 253:10 254:8 255:15 256:52 
-1.584797453547719 1.904693893724324 2.602549414655087 1.630177622890699 2.639798174415858 1.166181494279295 1:32 2:5 3:4 4:8 5:3 6:2 7:3 8:15 9:1 10:0 11:0 12:0 13:9 14:0 15:16 16:20 17:13 18:1 19:2 20:2 21:2 22:0 23:0 24:2 25:11 26:1 27:0 28:1 29:18 30:2 31:21 32:15 33:5 34:0 35:1 36:0 37:0 38:0 39:1 40:0 41:1 42:0 43:0 44:0 45:0 46:0 47:0 48:0 49:13 50:3 51:0 52:3 53:1 54:0 55:2 56:0 57:34 58:1 59:0 60:0 61:48 62:0 63:15 64:5 65:11 66:1 67:1 68:0 69:0 70:1 71:1 72:2 73:0 74:0 75:1 76:0 77:0 78:0 79:1 80:0 81:2 82:0 83:0 84:0 85:0 86:0 87:0 88:0 89:2 90:0 91:0 92:0 93:2 94:0 95:1 96:2 97:8 98:2 99:0 100:1 101:1 102:0 103:0 104:1 105:4 106:0 107:0 108:0 109:0 110:0 111:1 112:3 113:22 114:1 115:1 116:0 117:2 118:0 119:2 120:0 121:41 122:2 123:7 124:4 125:30 126:0 127:4 128:8 129:3 130:12 131:3 132:18 133:3 134:1 135:0 136:37 137:0 138:2 139:0 140:0 141:2 142:0 143:0 144:6 145:0 146:3 147:0 148:0 149:0 150:1 151:0 152:0 153:0 154:0 155:0 156:1 157:0 158:1 159:4 160:6 161:0 162:1 163:0 164:0 165:0 166:0 167:1 168:2 169:0 170:0 171:0 172:0 173:0 174:0 175:1 176:2 177:0 178:2 179:0 180:2 181:0 182:0 183:0 184:2 185:2 186:0 187:0 188:8 189:1 190:2 191:2 192:10 193:15 194:19 195:1 196:35 197:2 198:3 199:1 200:23 201:1 202:0 203:0 204:3 205:0 206:1 207:1 208:3 209:2 210:0 211:0 212:2 213:1 214:0 215:0 216:2 217:0 218:0 219:1 220:1 221:1 222:1 223:1 224:6 225:11 226:16 227:2 228:8 229:0 230:0 231:1 232:7 233:2 234:0 235:0 236:3 237:0 238:1 239:3 240:10 241:18 242:17 243:5 244:9 245:0 246:2 247:0 248:7 249:14 250:5 251:4 252:10 253:12 254:7 255:16 256:52 
-1.697402898682785 0.4859264263711069 0 0.65538635112821 0.5576858531743734 1.042707879354895 1:41 2:4 3:4 4:6 5:15 6:2 7:4 8:11 9:9 10:0 11:2 12:2 13:5 14:2 15:20 16:14 17:19 18:2 19:0 20:1 21:1 22:1 23:1 24:0 25:16 26:0 27:1 28:1 29:19 30:2 31:17 32:11 33:3 34:1 35:0 36:1 37:2 38:1 39:2 40:0 41:4 42:1 43:0 44:0 45:1 46:2 47:0 48:6 49:8 50:1 51:1 52:0 53:1 54:1 55:2 56:3 57:34 58:1 59:1 60:3 61:39 62:2 63:13 64:15 65:9 66:2 67:0 68:1 69:3 70:0 71:0 72:1 73:0 74:0 75:0 76:0 77:0 78:0 79:1 80:1 81:2 82:1 83:1 84:0 85:0 86:0 87:0 88:1 89:2 90:0 91:0 92:0 93:6 94:0 95:4 96:0 97:7 98:0 99:1 100:0 101:0 102:0 103:1 104:0 105:1 106:0 107:1 108:0 109:0 110:0 111:3 112:1 113:22 114:1 115:2 116:0 117:3 118:0 119:1 120:1 121:58 122:0 123:4 124:4 125:26 126:2 127:7 128:8 129:4 130:8 131:1 132:11 133:4 134:2 135:1 136:28 137:0 138:0 139:0 140:1 141:1 142:0 143:0 144:8 145:3 146:0 147:0 148:1 149:0 150:1 151:0 152:2 153:0 154:1 155:1 156:2 157:1 158:1 159:2 160:6 161:1 162:0 163:0 164:0 165:0 166:0 167:0 168:3 169:0 170:0 171:0 172:0 173:0 174:0 175:0 176:1 177:2 178:1 179:0 180:2 181:1 182:0 183:1 184:2 185:1 186:1 187:3 188:1 189:2 190:3 191:3 192:15 193:10 194:13 195:0 196:29 197:1 198:0 199:1 200:10 201:0 202:1 203:0 204:2 205:0 206:1 207:0 208:9 209:1 210:0 211:0 212:0 213:0 214:0 215:1 216:0 217:0 218:0 219:1 220:2 221:0 222:0 223:0 224:8 225:10 226:11 227:1 228:10 229:1 230:1 231:3 232:3 233:1 234:1 235:0 236:1 237:0 238:0 239:2 240:12 241:22 242:8 243:0 244:6 245:1 246:1 247:2 248:6 249:18 250:9 251:1 252:10 253:6 254:11 255:12 256:60 
-0.7315894952224067 0.9603357556772334 0.2918134541119929 0 0.7698650061369922 0 1:35 2:6 3:7 4:5 5:6 6:1 7:9 8:14 9:11 10:1 11:2 12:0 13:9 14:1 15:14 16:12 17:17 18:1 19:0 20:1 21:4 22:0 23:1 24:3 25:14 26:0 27:3 28:0 29:27 30:3 31:15 32:12 33:4 34:1 35:0 36:4 37:1 38:1 39:1 40:1 41:4 42:0 43:1 44:0 45:0 46:1 47:2 48:1 49:9 50:0 51:1 52:0 53:1 54:0 55:2 56:0 57:43 58:3 59:1 60:1 61:44 62:5 63:13 64:9 65:3 66:3 67:1 68:1 69:3 70:0 71:1 72:2 73:0 74:0 75:0 76:0 77:1 78:0 79:0 80:1 81:1 82:0 83:0 84:0 85:0 86:0 87:1 88:0 89:1 90:1 91:0 92:0 93:3 94:0 95:4 96:0 97:10 98:1 99:0 100:0 101:1 102:0 103:0 104:0 105:2 106:0 107:0 108:0 109:1 110:1 111:1 112:0 113:19 114:1 115:0 116:1 117:2 118:1 119:1 120:2 121:48 122:5 123:4 124:6 125:39 126:3 127:13 128:12 129:4 130:7 131:3 132:11 133:0 134:4 135:3 136:19 137:1 138:0 139:0 140:2 141:2 142:0 143:1 144:4 145:0 146:1 147:1 148:0 149:0 150:1 151:0 152:2 153:0 154:0 155:0 156:2 157:2 158:2 159:2 160:2 161:3 162:3 163:0 164:4 165:0 166:0 167:2 168:1 169:0 170:0 171:0 172:0 173:0 174:1 175:0 176:3 177:1 178:1 179:0 180:0 181:0 182:0 183:2 184:2 185:0 186:1 187:2 188:2 189:2 190:4 191:1 192:10 193:12 194:17 195:1 196:30 197:2 198:2 199:3 200:3 201:0 202:1 203:0 204:3 205:0 206:0 207:0 208:4 209:1 210:2 211:1 212:1 213:1 214:0 215:0 216:1 217:0 218:1 219:0 220:2 221:1 222:1 223:3 224:5 225:7 226:12 227:0 228:8 229:1 230:1 231:0 232:3 233:1 234:3 235:0 236:0 237:0 238:2 239:3 240:19 241:13 242:9 243:1 244:6 245:1 246:1 247:3 248:5 249:12 250:9 251:4 252:9 253:6 254:4 255:15 256:58 
-0.7500403579213756 0 0.5662285733927539 0.6975083197814516 0.6484497053577655 0.03605105986889345 1:40 2:9 3:2 4:3 5:8 6:0 7:3 8:14 9:12 10:2 11:4 12:0 13:9 14:1 15:6 16:19 17:12 18:4 19:2 20:0 21:5 22:0 23:0 24:0 25:8 26:2 27:1 28:1 29:25 30:5 31:15 32:6 33:6 34:0 35:0 36:1 37:5 38:0 39:2 40:0 41:1 42:1 43:0 44:0 45:2 46:0 47:2 48:4 49:15 50:0 51:1 52:2 53:4 54:0 55:0 56:1 57:35 58:2 59:0 60:1 61:60 62:2 63:13 64:11 65:4 66:1 67:1 68:1 69:3 70:0 71:0 72:1 73:1 74:0 75:0 76:1 77:2 78:1 79:0 80:0 81:1 82:1 83:0 84:1 85:1 86:1 87:0 88:1 89:1 90:0 91:0 92:0 93:2 94:0 95:2 96:2 97:7 98:1 99:0 100:0 101:1 102:0 103:1 104:1 105:1 106:1 107:0 108:1 109:2 110:0 111:2 112:3 113:21 114:3 115:0 116:0 117:1 118:0 119:1 120:1 121:56 122:2 123:6 124:2 125:26 126:5 127:10 128:14 129:5 130:3 131:4 132:16 133:2 134:1 135:1 136:36 137:0 138:1 139:0 140:1 141:0 142:0 143:1 144:6 145:0 146:4 147:2 148:0 149:1 150:0 151:0 152:0 153:1 154:1 155:0 156:2 157:1 158:1 159:3 160:5 161:3 162:1 163:0 164:1 165:0 166:1 167:0 168:1 169:0 170:1 171:0 172:1 173:1 174:0 175:0 176:2 177:1 178:1 179:0 180:1 181:0 182:0 183:0 184:2 185:0 186:0 187:2 188:3 189:4 190:2 191:0 192:12 193:6 194:16 195:2 196:15 197:0 198:0 199:1 200:10 201:0 202:0 203:0 204:0 205:1 206:0 207:1 208:8 209:1 210:1 211:1 212:0 213:0 214:1 215:0 216:4 217:0 218:2 219:0 220:2 221:0 222:1 223:1 224:6 225:12 226:12 227:1 228:4 229:0 230:0 231:2 232:4 233:3 234:2 235:0 236:2 237:1 238:1 239:3 240:9 241:17 242:9 243:1 244:3 245:2 246:6 247:3 248:1 249:14 250:8 251:3 252:9 253:11 254:3 255:16 256:57 
-3.70223559188562 3.490168706061534 4.189671445603982 2.388638992870277 3.223330990560572 2.430602772649165 1:30 2:11 3:8 4:9 5:12 6:0 7:6 8:6 9:5 10:2 11:0 12:2 13:9 14:2 15:13 16:12 17:14 18:2 19:2 20:0 21:3 22:0 23:0 24:0 25:16 26:0 27:0 28:1 29:28 30:3 31:25 32:13 33:5 34:1 35:1 36:0 37:2 38:0 39:1 40:3 41:2 42:0 43:1 44:0 45:3 46:1 47:2 48:1 49:13 50:2 51:2 52:0 53:0 54:1 55:1 56:3 57:18 58:3 59:1 60:2 61:46 62:1 63:19 64:14 65:6 66:0 67:1 68:3 69:0 70:1 71:2 72:5 73:3 74:0 75:0 76:1 77:2 78:0 79:1 80:2 81:1 82:0 83:0 84:1 85:0 86:0 87:0 88:0 89:1 90:0 91:0 92:0 93:0 94:0 95:2 96:2 97:13 98:3 99:0 100:1 101:0 102:1 103:1 104:0 105:3 106:1 107:0 108:0 109:1 110:1 111:0 112:2 113:19 114:1 115:0 116:0 117:2 118:1 119:1 120:1 121:30 122:2 123:0 124:2 125:16 126:1 127:8 128:12 129:8 130:6 131:0 132:16 133:1 134:3 135:1 136:36 137:1 138:0 139:0 140:0 141:1 142:2 143:0 144:13 145:1 146:1 147:0 148:2 149:1 150:0 151:0 152:0 153:0 154:2 155:0 156:0 157:0 158:0 159:2 160:9 161:0 162:2 163:1 164:1 165:0 166:0 167:0 168:4 169:0 170:0 171:0 172:0 173:0 174:1 175:1 176:1 177:3 178:1 179:0 180:1 181:0 182:0 183:0 184:1 185:0 186:0 187:0 188:0 189:2 190:3 191:2 192:12 193:5 194:12 195:3 196:21 197:1 198:3 199:0 200:15 201:0 202:1 203:0 204:2 205:0 206:1 207:0 208:7 209:0 210:1 211:1 212:7 213:0 214:0 215:0 216:1 217:4 218:2 219:1 220:3 221:0 222:1 223:1 224:9 225:12 226:16 227:3 228:6 229:2 230:1 231:0 232:5 233:1 234:4 235:1 236:3 237:1 238:1 239:1 240:10 241:20 242:14 243:0 244:2 245:3 246:3 247:2 248:10 249:12 250:6 251:5 252:9 253:7 254:9 255:16 256:55 
-2.171051217349264 1.70227380876695 1.960645600307822 1.980245465037234 1.450483576103876 1.137149809767635 1:39 2:4 3:4 4:3 5:8 6:4 7:6 8:5 9:9 10:3 11:1 12:0 13:7 14:1 15:14 16:20 17:12 18:5 19:0 20:0 21:3 22:1 23:1 24:0 25:19 26:1 27:2 28:0 29:29 30:3 31:36 32:25 33:9 34:0 35:0 36:1 37:1 38:1 39:0 40:0 41:6 42:0 43:1 44:0 45:6 46:1 47:1 48:5 49:7 50:1 51:2 52:1 53:2 54:0 55:1 56:0 57:30 58:1 59:4 60:1 61:44 62:5 63:19 64:8 65:5 66:1 67:1 68:3 69:1 70:0 71:1 72:1 73:1 74:0 75:0 76:0 77:1 78:0 79:1 80:1 81:3 82:0 83:0 84:0 85:1 86:0 87:1 88:0 89:2 90:0 91:0 92:1 93:1 94:0 95:5 96:0 97:10 98:1 99:0 100:1 101:2 102:0 103:0 104:2 105:1 106:0 107:0 108:0 109:0 110:1 111:1 112:1 113:22 114:6 115:1 116:0 117:2 118:0 119:1 120:2 121:45 122:1 123:2 124:2 125:25 126:3 127:11 128:18 129:4 130:5 131:0 132:4 133:1 134:2 135:0 136:22 137:1 138:2 139:1 140:3 141:1 142:0 143:0 144:5 145:0 146:2 147:0 148:1 149:1 150:0 151:0 152:0 153:0 154:1 155:0 156:1 157:0 158:1 159:2 160:7 161:2 162:1 163:0 164:1 165:0 166:1 167:0 168:2 169:1 170:0 171:0 172:1 173:1 174:0 175:0 176:2 177:0 178:0 179:1 180:3 181:0 182:0 183:0 184:1 185:2 186:0 187:0 188:2 189:3 190:5 191:2 192:10 193:7 194:9 195:0 196:17 197:1 198:1 199:1 200:10 201:0 202:0 203:0 204:3 205:0 206:1 207:0 208:5 209:0 210:1 211:0 212:1 213:0 214:0 215:0 216:2 217:1 218:0 219:0 220:4 221:1 222:2 223:1 224:5 225:9 226:14 227:0 228:8 229:0 230:1 231:1 232:5 233:1 234:0 235:0 236:1 237:1 238:1 239:5 240:15 241:21 242:12 243:3 244:4 245:2 246:0 247:3 248:5 249:13 250:9 251:4 252:10 253:4 254:4 255:16 256:56 
-2.143863166916955 1.383541947346786 1.744160914554539 1.936856267632408 2.689927629652567 1.624462199095526 1:29 2:7 3:4 4:6 5:13 6:2 7:7 8:12 9:9 10:1 11:2 12:0 13:13 14:3 15:12 16:16 17:6 18:4 19:0 20:1 21:3 22:2 23:2 24:1 25:20 26:1 27:3 28:0 29:22 30:0 31:25 32:13 33:7 34:0 35:1 36:1 37:2 38:0 39:0 40:1 41:1 42:0 43:0 44:2 45:1 46:1 47:7 48:1 49:13 50:1 51:0 52:0 53:1 54:0 55:3 56:0 57:28 58:1 59:1 60:2 61:51 62:3 63:14 64:7 65:9 66:0 67:3 68:4 69:2 70:0 71:0 72:3 73:1 74:0 75:1 76:0 77:4 78:0 79:1 80:1 81:1 82:0 83:0 84:0 85:0 86:0 87:1 88:0 89:2 90:0 91:0 92:0 93:2 94:0 95:2 96:3 97:6 98:1 99:0 100:0 101:3 102:0 103:0 104:1 105:0 106:0 107:0 108:0 109:4 110:1 111:1 112:1 113:20 114:1 115:1 116:0 117:2 118:0 119:2 120:2 121:41 122:1 123:4 124:1 125:21 126:3 127:9 128:19 129:10 130:9 131:0 132:11 133:0 134:1 135:0 136:23 137:0 138:0 139:0 140:3 141:2 142:0 143:1 144:9 145:0 146:2 147:0 148:0 149:0 150:0 151:0 152:0 153:1 154:1 155:0 156:2 157:3 158:3 159:2 160:5 161:1 162:0 163:0 164:0 165:0 166:1 167:0 168:3 169:0 170:0 171:0 172:0 173:0 174:0 175:1 176:1 177:0 178:0 179:1 180:0 181:0 182:0 183:0 184:1 185:1 186:3 187:0 188:5 189:3 190:2 191:0 192:19 193:4 194:16 195:3 196:25 197:0 198:0 199:0 200:9 201:0 202:0 203:1 204:2 205:0 206:0 207:1 208:8 209:1 210:2 211:0 212:1 213:0 214:2 215:0 216:0 217:4 218:0 219:0 220:0 221:0 222:0 223:3 224:4 225:13 226:19 227:0 228:13 229:0 230:0 231:0 232:8 233:1 234:2 235:0 236:0 237:2 238:2 239:1 240:7 241:26 242:9 243:2 244:4 245:0 246:0 247:1 248:10 249:13 250:4 251:7 252:15 253:5 254:6 255:11 256:53 
-0.8730992713670288 1.005960484687693 0.2911849378860019 0.9181180709578511 0.9897960140086351 1.707149348528282 1:36 2:7 3:8 4:8 5:5 6:2 7:4 8:9 9:10 10:0 11:0 12:2 13:14 14:3 15:9 16:18 17:6 18:0 19:0 20:1 21:1 22:1 23:1 24:1 25:15 26:2 27:3 28:1 29:23 30:1 31:11 32:10 33:11 34:0 35:0 36:4 37:3 38:0 39:2 40:1 41:3 42:0 43:0 44:1 45:2 46:0 47:3 48:1 49:10 50:2 51:0 52:1 53:1 54:1 55:0 56:3 57:36 58:0 59:2 60:1 61:41 62:2 63:12 64:17 65:7 66:4 67:2 68:1 69:2 70:0 71:1 72:1 73:3 74:0 75:0 76:0 77:0 78:0 79:1 80:0 81:3 82:0 83:1 84:0 85:0 86:0 87:0 88:0 89:2 90:0 91:0 92:0 93:3 94:0 95:1 96:1 97:4 98:2 99:2 100:1 101:1 102:0 103:0 104:0 105:1 106:0 107:0 108:0 109:0 110:0 111:1 112:4 113:25 114:1 115:0 116:1 117:2 118:1 119:0 120:3 121:61 122:1 123:4 124:4 125:38 126:4 127:11 128:15 129:5 130:8 131:5 132:12 133:2 134:4 135:2 136:14 137:0 138:2 139:1 140:1 141:0 142:1 143:1 144:6 145:1 146:0 147:0 148:0 149:2 150:0 151:0 152:0 153:0 154:1 155:0 156:1 157:1 158:2 159:2 160:4 161:0 162:1 163:1 164:0 165:0 166:1 167:0 168:3 169:0 170:0 171:0 172:0 173:1 174:1 175:2 176:4 177:0 178:0 179:0 180:0 181:0 182:1 183:0 184:5 185:0 186:3 187:0 188:2 189:3 190:2 191:1 192:13 193:9 194:12 195:1 196:30 197:1 198:0 199:0 200:18 201:0 202:2 203:0 204:2 205:1 206:0 207:1 208:10 209:3 210:0 211:0 212:0 213:0 214:3 215:0 216:1 217:0 218:0 219:0 220:1 221:0 222:0 223:1 224:5 225:14 226:7 227:1 228:11 229:1 230:3 231:1 232:3 233:3 234:1 235:0 236:2 237:0 238:4 239:0 240:7 241:15 242:11 243:2 244:7 245:2 246:0 247:1 248:5 249:17 250:6 251:5 252:5 253:6 254:5 255:10 256:54 
-1.147763194569059 0.4835284295400974 0 0 0.05883430846247972 0 1:31 2:10 3:9 4:10 5:11 6:1 7:6 8:11 9:6 10:1 11:2 12:1 13:11 14:1 15:8 16:13 17:10 18:0 19:1 20:2 21:3 22:0 23:1 24:1 25:14 26:2 27:0 28:0 29:14 30:3 31:13 32:10 33:9 34:2 35:1 36:0 37:1 38:0 39:1 40:0 41:3 42:0 43:0 44:0 45:2 46:0 47:1 48:4 49:15 50:2 51:1 52:0 53:5 54:2 55:1 56:0 57:39 58:0 59:2 60:0 61:55 62:0 63:13 64:4 65:7 66:0 67:2 68:1 69:1 70:0 71:0 72:5 73:5 74:1 75:0 76:0 77:1 78:1 79:0 80:1 81:3 82:0 83:0 84:1 85:0 86:1 87:1 88:0 89:1 90:0 91:0 92:0 93:2 94:0 95:2 96:1 97:9 98:1 99:1 100:0 101:1 102:0 103:2 104:2 105:5 106:0 107:0 108:0 109:1 110:1 111:1 112:0 113:19 114:2 115:1 116:2 117:2 118:0 119:1 120:1 121:59 122:2 123:4 124:4 125:45 126:2 127:10 128:8 129:3 130:10 131:2 132:16 133:2 134:1 135:1 136:13 137:0 138:0 139:0 140:2 141:1 142:1 143:1 144:4 145:1 146:0 147:0 148:0 149:1 150:0 151:0 152:3 153:0 154:0 155:0 156:0 157:0 158:1 159:2 160:6 161:5 162:1 163:0 164:3 165:0 166:0 167:2 168:3 169:0 170:0 171:1 172:0 173:1 174:0 175:0 176:1 177:0 178:1 179:0 180:1 181:2 182:1 183:0 184:3 185:0 186:0 187:1 188:1 189:2 190:2 191:0 192:11 193:7 194:14 195:3 196:22 197:2 198:1 199:1 200:16 201:5 202:1 203:0 204:1 205:1 206:0 207:0 208:5 209:1 210:1 211:0 212:0 213:0 214:0 215:0 216:1 217:1 218:1 219:0 220:6 221:0 222:1 223:2 224:6 225:14 226:6 227:0 228:5 229:0 230:2 231:0 232:5 233:2 234:3 235:0 236:1 237:0 238:3 239:1 240:13 241:18 242:11 243:2 244:6 245:3 246:2 247:4 248:6 249:19 250:5 251:4 252:8 253:7 254:9 255:13 256:48 
-1.415212866959599 1.272825405647025 0.314294441796014 0.2788033059288148 1.117322925800649 0.254244247700774 1:36 2:6 3:3 4:8 5:9 6:0 7:7 8:10 9:4 10:2 11:0 12:1 13:2 14:3 15:10 16:12 17:13 18:6 19:2 20:1 21:2 22:1 23:0 24:0 25:4 26:1 27:1 28:4 29:19 30:0 31:24 32:13 33:3 34:0 35:1 36:1 37:2 38:1 39:1 40:1 41:2 42:0 43:0 44:0 45:3 46:0 47:0 48:1 49:8 50:0 51:0 52:1 53:3 54:0 55:0 56:0 57:33 58:2 59:2 60:1 61:38 62:2 63:8 64:4 65:15 66:2 67:2 68:1 69:3 70:2 71:1 72:1 73:1 74:0 75:0 76:0 77:1 78:0 79:0 80:1 81:1 82:1 83:0 84:0 85:0 86:0 87:0 88:1 89:4 90:0 91:0 92:0 93:1 94:0 95:1 96:0 97:10 98:2 99:1 100:1 101:0 102:0 103:1 104:0 105:1 106:0 107:1 108:0 109:1 110:0 111:1 112:1 113:19 114:1 115:1 116:1 117:2 118:0 119:3 120:1 121:50 122:3 123:1 124:2 125:25 126:2 127:8 128:7 129:5 130:6 131:3 132:28 133:2 134:3 135:2 136:42 137:1 138:1 139:1 140:0 141:0 142:1 143:3 144:8 145:1 146:0 147:0 148:0 149:0 150:0 151:0 152:3 153:1 154:0 155:0 156:2 157:0 158:0 159:2 160:6 161:1 162:1 163:0 164:2 165:0 166:0 167:0 168:2 169:0 170:0 171:0 172:0 173:1 174:1 175:2 176:1 177:0 178:1 179:1 180:3 181:0 182:0 183:0 184:1 185:1 186:3 187:0 188:3 189:1 190:0 191:2 192:5 193:4 194:23 195:0 196:47 197:2 198:2 199:2 200:23 201:1 202:0 203:0 204:0 205:0 206:0 207:0 208:8 209:2 210:0 211:0 212:2 213:0 214:1 215:0 216:3 217:4 218:0 219:0 220:2 221:1 222:1 223:1 224:8 225:10 226:12 227:2 228:11 229:0 230:1 231:0 232:7 233:2 234:0 235:1 236:2 237:1 238:0 239:3 240:10 241:15 242:12 243:1 244:3 245:0 246:1 247:1 248:9 249:10 250:8 251:2 252:18 253:6 254:5 255:19 256:55 
-1.150602037398828 3.124039176507025 1.355891556619613 2.359244043047421 2.015796886483209 2.75806584615936 1:39 2:9 3:9 4:7 5:12 6:2 7:7 8:12 9:7 10:2 11:2 12:0 13:5 14:1 15:11 16:8 17:11 18:1 19:1 20:3 21:4 22:1 23:1 24:3 25:6 26:0 27:0 28:0 29:17 30:1 31:27 32:13 33:4 34:0 35:0 36:0 37:1 38:0 39:2 40:2 41:1 42:0 43:0 44:0 45:3 46:0 47:0 48:2 49:7 50:0 51:1 52:0 53:2 54:0 55:0 56:0 57:23 58:2 59:6 60:2 61:35 62:4 63:9 64:5 65:16 66:1 67:5 68:4 69:7 70:0 71:0 72:2 73:3 74:0 75:0 76:0 77:0 78:0 79:0 80:1 81:1 82:0 83:0 84:0 85:0 86:0 87:0 88:0 89:2 90:0 91:0 92:0 93:2 94:1 95:0 96:2 97:8 98:0 99:0 100:1 101:2 102:0 103:0 104:0 105:2 106:0 107:0 108:0 109:1 110:1 111:0 112:0 113:17 114:4 115:0 116:0 117:4 118:0 119:1 120:0 121:54 122:1 123:3 124:4 125:25 126:1 127:1 128:10 129:5 130:10 131:1 132:19 133:0 134:4 135:0 136:35 137:0 138:0 139:0 140:1 141:1 142:1 143:3 144:11 145:1 146:0 147:0 148:3 149:1 150:1 151:0 152:1 153:1 154:0 155:0 156:1 157:0 158:1 159:0 160:3 161:1 162:1 163:0 164:0 165:0 166:0 167:0 168:6 169:0 170:0 171:0 172:3 173:0 174:1 175:2 176:1 177:4 178:4 179:0 180:2 181:0 182:1 183:0 184:1 185:2 186:0 187:1 188:9 189:1 190:2 191:2 192:12 193:5 194:16 195:0 196:50 197:4 198:2 199:2 200:14 201:0 202:1 203:0 204:3 205:0 206:1 207:0 208:6 209:1 210:0 211:0 212:1 213:0 214:1 215:1 216:3 217:1 218:0 219:0 220:0 221:0 222:0 223:2 224:5 225:10 226:11 227:0 228:12 229:1 230:1 231:0 232:6 233:1 234:3 235:0 236:1 237:3 238:0 239:6 240:9 241:13 242:10 243:0 244:2 245:0 246:2 247:0 248:8 249:10 250:10 251:3 252:14 253:7 254:8 255:13 256:61 
-1.032844787943366 1.282357321320679 1.25941156217987 1.317867391057199 1.224712484914056 0.6192418874030169 1:41 2:4 3:4 4:6 5:16 6:0 7:8 8:18 9:5 10:1 11:1 12:0 13:2 14:1 15:4 16:10 17:13 18:1 19:3 20:2 21:6 22:1 23:1 24:0 25:13 26:0 27:1 28:0 29:19 30:1 31:34 32:7 33:4 34:0 35:3 36:0 37:1 38:1 39:1 40:0 41:1 42:0 43:0 44:0 45:1 46:2 47:2 48:0 49:11 50:1 51:1 52:0 53:3 54:0 55:0 56:0 57:23 58:2 59:3 60:2 61:41 62:1 63:8 64:3 65:7 66:0 67:2 68:1 69:4 70:1 71:2 72:1 73:1 74:0 75:0 76:0 77:1 78:0 79:0 80:0 81:0 82:0 83:1 84:0 85:0 86:1 87:0 88:0 89:0 90:0 91:2 92:0 93:1 94:0 95:2 96:2 97:10 98:2 99:1 100:0 101:2 102:1 103:2 104:2 105:0 106:1 107:0 108:1 109:3 110:0 111:2 112:2 113:16 114:3 115:2 116:0 117:2 118:0 119:1 120:0 121:50 122:3 123:0 124:3 125:21 126:4 127:9 128:9 129:6 130:6 131:2 132:21 133:0 134:1 135:3 136:31 137:0 138:3 139:1 140:1 141:0 142:2 143:4 144:10 145:1 146:1 147:0 148:2 149:1 150:0 151:0 152:3 153:0 154:0 155:0 156:2 157:0 158:0 159:3 160:4 161:3 162:0 163:1 164:2 165:0 166:0 167:1 168:4 169:1 170:0 171:0 172:1 173:1 174:1 175:0 176:2 177:2 178:1 179:0 180:0 181:2 182:0 183:0 184:4 185:1 186:0 187:2 188:4 189:4 190:0 191:4 192:4 193:4 194:23 195:1 196:50 197:2 198:3 199:1 200:13 201:2 202:0 203:0 204:3 205:0 206:1 207:0 208:1 209:0 210:1 211:0 212:5 213:2 214:1 215:0 216:3 217:0 218:2 219:0 220:2 221:2 222:1 223:0 224:8 225:5 226:16 227:2 228:9 229:0 230:0 231:0 232:8 233:3 234:0 235:1 236:4 237:0 238:2 239:0 240:7 241:8 242:8 243:0 244:5 245:0 246:1 247:2 248:9 249:12 250:6 251:3 252:14 253:6 254:14 255:18 256:58 
-2.655026004924089 2.191636279146913 4.112267553667126 2.324061952333623 2.566156339275248 2.083254097867482 1:31 2:6 3:7 4:11 5:7 6:1 7:6 8:14 9:12 10:3 11:2 12:1 13:13 14:2 15:13 16:13 17:10 18:1 19:1 20:0 21:3 22:1 23:1 24:1 25:10 26:1 27:2 28:0 29:11 30:4 31:20 32:13 33:5 34:1 35:0 36:2 37:0 38:1 39:0 40:2 41:5 42:0 43:0 44:0 45:3 46:0 47:2 48:5 49:19 50:1 51:4 52:1 53:0 54:0 55:2 56:2 57:20 58:4 59:3 60:1 61:45 62:3 63:11 64:7 65:8 66:2 67:2 68:0 69:2 70:2 71:0 72:0 73:1 74:0 75:1 76:0 77:1 78:0 79:0 80:2 81:2 82:0 83:0 84:1 85:3 86:0 87:0 88:1 89:3 90:0 91:0 92:0 93:3 94:1 95:1 96:3 97:8 98:1 99:0 100:0 101:3 102:0 103:1 104:1 105:6 106:0 107:0 108:1 109:1 110:0 111:1 112:3 113:20 114:1 115:1 116:0 117:4 118:0 119:0 120:1 121:46 122:3 123:2 124:3 125:28 126:1 127:7 128:8 129:4 130:8 131:1 132:14 133:1 134:1 135:4 136:31 137:0 138:1 139:0 140:4 141:0 142:2 143:0 144:7 145:1 146:1 147:0 148:1 149:0 150:0 151:0 152:1 153:1 154:0 155:0 156:4 157:0 158:1 159:1 160:7 161:2 162:0 163:0 164:2 165:0 166:0 167:0 168:0 169:0 170:0 171:0 172:0 173:0 174:0 175:2 176:1 177:1 178:1 179:0 180:0 181:0 182:1 183:0 184:2 185:2 186:2 187:1 188:6 189:2 190:0 191:3 192:15 193:6 194:11 195:2 196:33 197:1 198:2 199:1 200:17 201:0 202:0 203:0 204:1 205:1 206:0 207:2 208:4 209:3 210:1 211:0 212:3 213:0 214:0 215:0 216:1 217:0 218:0 219:0 220:4 221:1 222:2 223:1 224:9 225:5 226:10 227:0 228:11 229:1 230:2 231:2 232:6 233:0 234:1 235:0 236:1 237:0 238:0 239:1 240:12 241:20 242:4 243:2 244:8 245:3 246:2 247:3 248:7 249:17 250:8 251:1 252:4 253:10 254:12 255:10 256:56 
-0.7645902376506034 1.864974389327672 0.8049390218172459 0.7528516806877767 0.8451739517681843 0.5537466324192714 1:36 2:6 3:5 4:9 5:9 6:4 7:5 8:7 9:7 10:2 11:3 12:3 13:12 14:4 15:10 16:11 17:12 18:1 19:2 20:1 21:1 22:0 23:2 24:1 25:16 26:1 27:1 28:3 29:16 30:2 31:20 32:10 33:7 34:0 35:0 36:0 37:2 38:0 39:0 40:2 41:1 42:0 43:0 44:1 45:3 46:0 47:1 48:6 49:12 50:3 51:0 52:1 53:0 54:1 55:0 56:3 57:29 58:0 59:2 60:3 61:53 62:3 63:13 64:11 65:12 66:3 67:1 68:4 69:5 70:0 71:2 72:1 73:0 74:0 75:0 76:0 77:2 78:0 79:1 80:1 81:1 82:0 83:0 84:0 85:3 86:0 87:0 88:1 89:3 90:0 91:0 92:0 93:1 94:0 95:3 96:2 97:6 98:0 99:0 100:0 101:0 102:1 103:2 104:1 105:1 106:0 107:0 108:0 109:2 110:0 111:3 112:0 113:17 114:0 115:0 116:0 117:2 118:0 119:0 120:0 121:62 122:0 123:4 124:0 125:31 126:0 127:12 128:13 129:6 130:9 131:2 132:14 133:0 134:1 135:2 136:32 137:2 138:0 139:0 140:1 141:0 142:1 143:3 144:7 145:0 146:1 147:0 148:0 149:0 150:0 151:0 152:1 153:3 154:1 155:0 156:3 157:0 158:2 159:2 160:3 161:0 162:0 163:1 164:1 165:0 166:0 167:0 168:0 169:0 170:0 171:0 172:1 173:1 174:0 175:0 176:2 177:0 178:0 179:0 180:1 181:0 182:1 183:1 184:1 185:3 186:1 187:1 188:9 189:1 190:0 191:2 192:20 193:3 194:9 195:2 196:29 197:3 198:1 199:1 200:20 201:0 202:1 203:0 204:2 205:0 206:1 207:0 208:5 209:0 210:2 211:0 212:4 213:0 214:0 215:2 216:2 217:1 218:0 219:0 220:2 221:1 222:0 223:1 224:11 225:7 226:9 227:0 228:12 229:2 230:2 231:0 232:4 233:2 234:1 235:0 236:0 237:0 238:0 239:4 240:15 241:13 242:7 243:2 244:5 245:1 246:0 247:0 248:7 249:10 250:7 251:0 252:8 253:5 254:4 255:10 256:59 
-1.117699229374991 1.511623370477199 0.9998799372816515 1.825709769196068 0.1507534327106125 0.8752143308599823 1:39 2:6 3:4 4:10 5:15 6:2 7:8 8:8 9:9 10:3 11:0 12:2 13:9 14:0 15:15 16:9 17:11 18:0 19:0 20:1 21:1 22:0 23:2 24:0 25:8 26:1 27:2 28:1 29:16 30:3 31:16 32:16 33:7 34:1 35:0 36:1 37:1 38:0 39:0 40:1 41:1 42:0 43:1 44:0 45:0 46:1 47:1 48:5 49:10 50:5 51:1 52:0 53:1 54:0 55:2 56:0 57:43 58:1 59:1 60:4 61:51 62:0 63:13 64:11 65:11 66:2 67:1 68:2 69:2 70:0 71:2 72:4 73:1 74:0 75:0 76:0 77:2 78:0 79:0 80:1 81:3 82:0 83:0 84:0 85:1 86:0 87:0 88:0 89:0 90:1 91:0 92:0 93:5 94:1 95:4 96:2 97:5 98:1 99:1 100:2 101:0 102:0 103:0 104:0 105:4 106:0 107:0 108:0 109:2 110:0 111:2 112:3 113:14 114:2 115:0 116:0 117:3 118:0 119:1 120:0 121:46 122:1 123:4 124:3 125:37 126:1 127:5 128:9 129:5 130:8 131:2 132:16 133:0 134:3 135:1 136:25 137:0 138:0 139:1 140:1 141:0 142:0 143:0 144:7 145:2 146:0 147:0 148:3 149:0 150:1 151:0 152:2 153:0 154:0 155:0 156:2 157:2 158:3 159:2 160:6 161:0 162:1 163:0 164:0 165:0 166:0 167:0 168:3 169:0 170:1 171:0 172:0 173:1 174:0 175:0 176:3 177:1 178:1 179:0 180:5 181:0 182:0 183:0 184:2 185:1 186:1 187:0 188:3 189:2 190:2 191:3 192:15 193:7 194:11 195:2 196:31 197:1 198:4 199:0 200:23 201:1 202:2 203:0 204:3 205:0 206:0 207:0 208:11 209:1 210:2 211:0 212:1 213:0 214:0 215:0 216:3 217:0 218:2 219:0 220:0 221:2 222:1 223:1 224:6 225:6 226:10 227:0 228:9 229:0 230:1 231:2 232:9 233:0 234:0 235:3 236:0 237:0 238:1 239:2 240:10 241:20 242:5 243:0 244:5 245:0 246:0 247:3 248:6 249:6 250:3 251:1 252:14 253:10 254:4 255:18 256:53 
-0.8560523897143946 1.49349127531949 1.397889528325001 0.4410784978585163 1.497871044868397 0.7613821771401544 1:44 2:10 3:9 4:8 5:8 6:2 7:3 8:12 9:7 10:2 11:2 12:0 13:6 14:3 15:14 16:15 17:15 18:3 19:2 20:1 21:1 22:0 23:4 24:0 25:19 26:1 27:2 28:0 29:18 30:3 31:15 32:11 33:5 34:2 35:1 36:1 37:0 38:0 39:0 40:0 41:0 42:1 43:2 44:1 45:1 46:0 47:2 48:2 49:16 50:1 51:0 52:1 53:2 54:1 55:3 56:1 57:23 58:1 59:2 60:1 61:28 62:2 63:5 64:10 65:9 66:5 67:1 68:3 69:5 70:1 71:1 72:0 73:1 74:0 75:0 76:0 77:0 78:0 79:0 80:2 81:0 82:0 83:0 84:0 85:1 86:0 87:0 88:0 89:1 90:0 91:1 92:0 93:0 94:1 95:2 96:2 97:9 98:2 99:2 100:0 101:0 102:1 103:2 104:3 105:0 106:0 107:0 108:1 109:2 110:1 111:0 112:2 113:16 114:1 115:1 116:0 117:1 118:0 119:1 120:0 121:42 122:1 123:1 124:2 125:30 126:1 127:3 128:13 129:4 130:6 131:4 132:22 133:2 134:1 135:2 136:30 137:0 138:2 139:0 140:1 141:3 142:2 143:1 144:9 145:0 146:0 147:0 148:1 149:0 150:3 151:1 152:4 153:0 154:0 155:0 156:1 157:0 158:0 159:3 160:6 161:2 162:2 163:1 164:1 165:0 166:1 167:0 168:1 169:0 170:1 171:0 172:2 173:1 174:0 175:1 176:2 177:1 178:2 179:0 180:0 181:2 182:1 183:0 184:2 185:4 186:2 187:1 188:2 189:2 190:1 191:1 192:8 193:5 194:19 195:2 196:22 197:1 198:3 199:0 200:15 201:1 202:0 203:0 204:4 205:0 206:0 207:4 208:4 209:1 210:1 211:2 212:3 213:0 214:2 215:0 216:0 217:0 218:2 219:0 220:5 221:0 222:0 223:2 224:6 225:7 226:10 227:0 228:6 229:2 230:0 231:0 232:6 233:3 234:3 235:1 236:0 237:1 238:3 239:4 240:16 241:25 242:9 243:2 244:6 245:1 246:1 247:5 248:4 249:9 250:5 251:3 252:8 253:5 254:9 255:16 256:69 
-2.598126476776633 1.069047751775658 1.590968725421436 1.023934252361495 1.33233120184155 0.5942387838236975 1:41 2:7 3:3 4:5 5:13 6:0 7:8 8:13 9:3 10:3 11:2 12:0 13:13 14:1 15:15 16:12 17:16 18:3 19:3 20:1 21:0 22:1 23:1 24:2 25:12 26:2 27:1 28:2 29:19 30:0 31:17 32:18 33:10 34:0 35:0 36:0 37:3 38:1 39:1 40:0 41:1 42:0 43:0 44:0 45:2 46:0 47:1 48:1 49:11 50:0 51:1 52:1 53:2 54:2 55:1 56:1 57:22 58:0 59:2 60:2 61:30 62:0 63:11 64:11 65:8 66:2 67:1 68:1 69:2 70:1 71:1 72:1 73:1 74:0 75:0 76:0 77:0 78:2 79:0 80:0 81:2 82:0 83:1 84:1 85:1 86:0 87:0 88:1 89:2 90:0 91:0 92:1 93:0 94:0 95:1 96:1 97:6 98:0 99:1 100:1 101:2 102:0 103:1 104:0 105:2 106:1 107:0 108:1 109:1 110:0 111:1 112:2 113:19 114:3 115:1 116:2 117:1 118:0 119:0 120:1 121:43 122:2 123:2 124:5 125:32 126:2 127:5 128:9 129:4 130:7 131:3 132:16 133:1 134:1 135:1 136:45 137:2 138:1 139:0 140:1 141:0 142:0 143:2 144:7 145:0 146:1 147:0 148:0 149:0 150:0 151:0 152:1 153:0 154:0 155:0 156:0 157:0 158:2 159:2 160:8 161:0 162:1 163:0 164:2 165:1 166:0 167:0 168:1 169:1 170:0 171:1 172:0 173:0 174:0 175:0 176:0 177:4 178:1 179:0 180:2 181:0 182:1 183:1 184:1 185:4 186:3 187:2 188:2 189:5 190:3 191:3 192:8 193:7 194:14 195:0 196:20 197:2 198:3 199:1 200:12 201:1 202:2 203:0 204:0 205:0 206:0 207:1 208:5 209:5 210:1 211:1 212:2 213:0 214:1 215:0 216:0 217:1 218:0 219:0 220:3 221:2 222:0 223:1 224:7 225:9 226:16 227:0 228:6 229:0 230:3 231:1 232:6 233:1 234:2 235:0 236:2 237:1 238:2 239:4 240:13 241:27 242:8 243:2 244:11 245:0 246:2 247:3 248:6 249:15 250:2 251:1 252:8 253:7 254:8 255:22 256:61 
-1.463694370563224 2.16158576573478 1.926849876405115 1.275295652932926 1.1289911907048 0.7285362662280386 1:41 2:9 3:3 4:7 5:8 6:2 7:5 8:16 9:7 10:3 11:1 12:1 13:8 14:0 15:10 16:19 17:20 18:5 19:1 20:1 21:2 22:1 23:2 24:1 25:10 26:2 27:0 28:2 29:11 30:2 31:28 32:10 33:8 34:2 35:1 36:1 37:2 38:1 39:0 40:0 41:1 42:1 43:0 44:0 45:0 46:1 47:1 48:2 49:6 50:2 51:2 52:1 53:0 54:0 55:2 56:2 57:25 58:2 59:0 60:2 61:36 62:1 63:10 64:5 65:7 66:3 67:1 68:1 69:4 70:0 71:1 72:3 73:1 74:0 75:0 76:0 77:2 78:0 79:0 80:1 81:0 82:0 83:0 84:0 85:1 86:0 87:0 88:0 89:1 90:0 91:0 92:0 93:2 94:0 95:2 96:4 97:5 98:2 99:0 100:2 101:2 102:0 103:1 104:1 105:3 106:0 107:0 108:2 109:0 110:0 111:1 112:1 113:19 114:1 115:2 116:0 117:2 118:0 119:2 120:0 121:52 122:3 123:3 124:1 125:20 126:2 127:4 128:5 129:4 130:5 131:0 132:9 133:0 134:4 135:0 136:44 137:4 138:1 139:0 140:0 141:1 142:1 143:2 144:10 145:4 146:3 147:0 148:2 149:0 150:1 151:0 152:1 153:3 154:1 155:1 156:1 157:0 158:2 159:2 160:6 161:3 162:0 163:1 164:5 165:0 166:0 167:1 168:1 169:0 170:0 171:0 172:0 173:0 174:0 175:0 176:1 177:0 178:0 179:0 180:3 181:1 182:0 183:1 184:2 185:2 186:0 187:0 188:1 189:2 190:3 191:3 192:4 193:8 194:15 195:0 196:27 197:1 198:0 199:2 200:8 201:0 202:2 203:0 204:1 205:0 206:0 207:1 208:7 209:1 210:1 211:1 212:0 213:0 214:0 215:1 216:2 217:1 218:1 219:0 220:0 221:1 222:0 223:0 224:5 225:12 226:17 227:0 228:4 229:0 230:3 231:1 232:5 233:2 234:1 235:0 236:3 237:3 238:3 239:5 240:22 241:20 242:12 243:1 244:12 245:3 246:1 247:3 248:5 249:9 250:9 251:3 252:13 253:7 254:11 255:15 256:62 
-1.32742278698273 -1.658686569444156 0.08147220737024967 1.041700849781003 0.5911116388488113 2.100660632632202 1:34 2:5 3:3 4:6 5:12 6:1 7:11 8:17 9:7 10:0 11:0 12:0 13:10 14:2 15:11 16:13 17:7 18:1 19:0 20:2 21:0 22:0 23:1 24:0 25:6 26:1 27:1 28:0 29:16 30:0 31:19 32:18 33:3 34:2 35:2 36:0 37:0 38:0 39:0 40:1 41:1 42:0 43:0 44:0 45:2 46:0 47:0 48:1 49:8 50:1 51:1 52:0 53:4 54:0 55:1 56:0 57:38 58:0 59:3 60:2 61:58 62:0 63:11 64:7 65:13 66:1 67:0 68:3 69:7 70:1 71:1 72:1 73:0 74:0 75:0 76:0 77:1 78:0 79:1 80:1 81:2 82:0 83:1 84:0 85:0 86:0 87:0 88:0 89:0 90:0 91:0 92:1 93:3 94:0 95:1 96:2 97:10 98:0 99:0 100:1 101:1 102:0 103:1 104:1 105:2 106:0 107:0 108:0 109:4 110:1 111:0 112:1 113:21 114:1 115:0 116:0 117:4 118:0 119:0 120:1 121:66 122:2 123:3 124:4 125:30 126:3 127:6 128:8 129:8 130:6 131:2 132:14 133:1 134:2 135:2 136:22 137:1 138:0 139:0 140:1 141:1 142:0 143:0 144:7 145:0 146:0 147:0 148:0 149:0 150:0 151:0 152:0 153:0 154:0 155:0 156:1 157:2 158:0 159:2 160:6 161:0 162:2 163:1 164:1 165:0 166:0 167:0 168:3 169:0 170:0 171:0 172:0 173:0 174:0 175:0 176:0 177:0 178:3 179:2 180:1 181:0 182:0 183:0 184:4 185:3 186:0 187:1 188:13 189:5 190:3 191:2 192:20 193:8 194:11 195:0 196:32 197:2 198:2 199:2 200:12 201:0 202:1 203:1 204:3 205:0 206:1 207:2 208:1 209:1 210:2 211:0 212:1 213:0 214:1 215:0 216:1 217:2 218:0 219:0 220:3 221:2 222:0 223:1 224:5 225:12 226:12 227:0 228:10 229:2 230:3 231:0 232:3 233:2 234:0 235:0 236:2 237:1 238:1 239:2 240:9 241:10 242:13 243:4 244:5 245:1 246:1 247:2 248:4 249:11 250:14 251:1 252:8 253:8 254:7 255:10 256:66 
-1.150119455180869 -1.858335482330061 0.4905785255716297 0.4445506011659573 0.8119045418813016 0.6519207679238969 1:26 2:4 3:7 4:8 5:7 6:1 7:10 8:17 9:7 10:3 11:3 12:0 13:9 14:3 15:14 16:15 17:8 18:1 19:2 20:1 21:1 22:0 23:0 24:3 25:10 26:1 27:3 28:1 29:23 30:0 31:25 32:17 33:11 34:0 35:0 36:1 37:1 38:0 39:1 40:1 41:3 42:0 43:0 44:1 45:2 46:1 47:1 48:2 49:9 50:1 51:0 52:0 53:2 54:0 55:2 56:0 57:39 58:2 59:4 60:3 61:46 62:4 63:8 64:10 65:11 66:0 67:0 68:2 69:2 70:0 71:1 72:0 73:2 74:1 75:0 76:0 77:0 78:0 79:2 80:1 81:0 82:1 83:0 84:0 85:0 86:0 87:0 88:1 89:7 90:1 91:0 92:0 93:0 94:2 95:2 96:0 97:10 98:1 99:0 100:0 101:1 102:0 103:0 104:0 105:2 106:0 107:0 108:0 109:0 110:0 111:0 112:2 113:18 114:3 115:0 116:1 117:0 118:0 119:2 120:1 121:72 122:2 123:1 124:1 125:40 126:3 127:8 128:9 129:5 130:6 131:2 132:18 133:1 134:2 135:0 136:15 137:1 138:2 139:0 140:0 141:2 142:0 143:1 144:13 145:0 146:0 147:0 148:2 149:0 150:0 151:0 152:3 153:1 154:2 155:0 156:1 157:1 158:1 159:2 160:7 161:0 162:1 163:0 164:2 165:0 166:1 167:0 168:1 169:0 170:0 171:0 172:1 173:0 174:0 175:1 176:4 177:1 178:0 179:1 180:1 181:0 182:0 183:1 184:0 185:1 186:1 187:0 188:1 189:0 190:1 191:3 192:11 193:10 194:14 195:1 196:26 197:2 198:2 199:0 200:14 201:0 202:0 203:0 204:2 205:0 206:0 207:0 208:7 209:1 210:1 211:0 212:2 213:0 214:0 215:0 216:3 217:0 218:1 219:1 220:0 221:1 222:0 223:1 224:4 225:7 226:9 227:2 228:6 229:0 230:1 231:1 232:5 233:1 234:0 235:0 236:1 237:0 238:4 239:1 240:19 241:15 242:6 243:4 244:7 245:3 246:0 247:2 248:5 249:9 250:12 251:2 252:6 253:10 254:8 255:15 256:51 
-1.958669981278659 -2.541589872322304 0.7999549134940863 0.68357902584081 1.539548625368584 0.3338814357946835 1:33 2:7 3:8 4:1 5:9 6:1 7:7 8:9 9:6 10:1 11:1 12:1 13:8 14:3 15:8 16:22 17:8 18:0 19:4 20:2 21:0 22:1 23:0 24:3 25:13 26:1 27:1 28:1 29:19 30:2 31:25 32:16 33:9 34:2 35:0 36:1 37:0 38:2 39:0 40:1 41:0 42:1 43:0 44:1 45:3 46:2 47:3 48:2 49:9 50:2 51:1 52:0 53:1 54:0 55:3 56:1 57:43 58:4 59:2 60:1 61:42 62:2 63:16 64:6 65:9 66:3 67:2 68:2 69:3 70:0 71:1 72:1 73:0 74:0 75:0 76:0 77:1 78:0 79:0 80:1 81:2 82:0 83:0 84:0 85:0 86:0 87:1 88:1 89:1 90:0 91:0 92:0 93:3 94:0 95:2 96:0 97:10 98:1 99:1 100:1 101:4 102:0 103:0 104:1 105:4 106:0 107:0 108:0 109:1 110:0 111:0 112:3 113:22 114:1 115:0 116:3 117:3 118:1 119:0 120:2 121:62 122:2 123:1 124:2 125:32 126:3 127:9 128:9 129:4 130:13 131:1 132:14 133:3 134:2 135:0 136:27 137:1 138:1 139:0 140:0 141:1 142:1 143:0 144:8 145:0 146:1 147:1 148:2 149:0 150:0 151:0 152:1 153:1 154:0 155:0 156:2 157:2 158:0 159:2 160:6 161:0 162:0 163:0 164:2 165:0 166:0 167:0 168:1 169:0 170:1 171:0 172:0 173:0 174:0 175:0 176:1 177:2 178:0 179:0 180:1 181:1 182:1 183:0 184:0 185:3 186:2 187:1 188:2 189:3 190:4 191:1 192:8 193:9 194:11 195:3 196:22 197:2 198:1 199:0 200:6 201:0 202:0 203:1 204:1 205:0 206:0 207:0 208:5 209:2 210:2 211:0 212:2 213:2 214:0 215:1 216:2 217:1 218:0 219:0 220:3 221:1 222:0 223:3 224:3 225:10 226:14 227:0 228:6 229:0 230:1 231:0 232:6 233:0 234:2 235:0 236:2 237:0 238:3 239:3 240:12 241:10 242:10 243:2 244:4 245:1 246:0 247:2 248:5 249:11 250:11 251:2 252:4 253:8 254:6 255:30 256:56 
-2.201856068667584 -1.479721100088123 0.6750243938574549 1.618699644079119 2.119635306074528 1.786857281339125 1:36 2:9 3:8 4:6 5:14 6:2 7:10 8:13 9:7 10:1 11:1 12:0 13:8 14:1 15:12 16:15 17:8 18:1 19:1 20:1 21:0 22:1 23:0 24:1 25:7 26:1 27:1 28:2 29:15 30:2 31:29 32:13 33:3 34:1 35:1 36:0 37:2 38:0 39:2 40:1 41:1 42:0 43:0 44:0 45:2 46:0 47:2 48:2 49:10 50:1 51:2 52:0 53:2 54:0 55:0 56:0 57:30 58:2 59:3 60:3 61:32 62:2 63:10 64:11 65:6 66:2 67:1 68:4 69:6 70:1 71:2 72:2 73:1 74:0 75:0 76:0 77:0 78:0 79:0 80:3 81:5 82:0 83:0 84:0 85:0 86:0 87:0 88:1 89:1 90:0 91:0 92:1 93:3 94:1 95:2 96:2 97:5 98:1 99:0 100:1 101:1 102:2 103:0 104:0 105:3 106:0 107:0 108:1 109:1 110:0 111:0 112:2 113:17 114:2 115:1 116:1 117:1 118:0 119:0 120:1 121:63 122:2 123:2 124:0 125:26 126:1 127:7 128:12 129:5 130:3 131:1 132:23 133:1 134:1 135:1 136:26 137:0 138:1 139:2 140:0 141:0 142:3 143:1 144:12 145:1 146:2 147:1 148:1 149:0 150:0 151:0 152:0 153:0 154:1 155:1 156:2 157:1 158:0 159:1 160:9 161:2 162:0 163:0 164:1 165:0 166:0 167:0 168:1 169:0 170:0 171:0 172:1 173:0 174:0 175:1 176:3 177:2 178:0 179:0 180:0 181:0 182:0 183:0 184:1 185:1 186:0 187:0 188:6 189:3 190:2 191:2 192:24 193:7 194:12 195:2 196:34 197:4 198:1 199:0 200:16 201:1 202:0 203:1 204:1 205:0 206:1 207:0 208:7 209:0 210:3 211:0 212:1 213:1 214:0 215:0 216:3 217:0 218:0 219:0 220:1 221:1 222:1 223:2 224:0 225:11 226:7 227:1 228:6 229:1 230:0 231:0 232:4 233:2 234:1 235:0 236:2 237:1 238:1 239:0 240:9 241:20 242:10 243:2 244:9 245:2 246:3 247:2 248:3 249:15 250:5 251:2 252:19 253:7 254:12 255:14 256:55 
